svm_type c_svc
kernel_type linear
nr_class 6
total_sv 1170
rho -193.185 -184.897 99.6909 -133.162 -63.8256 312.66 60.7664 63.9678 123.768 319.731 -245.604 69.7748 -80.7219 -5.84406 115.743
label 5 0 1 3 2 4
nr_sv 174 168 295 325 195 13
SV
0 0 0 0 1 0:0.030243 1:1.0643 2:77.9958 3:0.67599 4:16.9324 5:217.978 6:3.0127 7:3.9363 8:0.022256 9:1.0548 10:-0.27286 11:0.52454 
0 0 1 0 0 0:0.035217 1:0.71913 2:78.0607 3:0.73468 4:16.9395 5:218.5839 6:3.0112 7:3.7542 8:0.025479 9:0.91727 10:-0.33601 11:0.6309 
0 0 1 0 0 0:0.035694 1:0.76946 2:78.0259 3:0.7203 4:16.932 5:218.2987 6:3.0162 7:3.7933 8:0.024848 9:0.93778 10:-0.34773 11:0.64708 
0 0 1 0 0 0:0.035289 1:0.54854 2:77.9704 3:0.77122 4:16.9258 5:218.5832 6:3.0074 7:3.6361 8:0.027852 9:0.82409 10:-0.33917 11:0.63466 
0 1 1 0 0 0:0.035634 1:0.6222 2:78.1462 3:0.75347 4:16.9457 5:218.9209 6:3.0135 7:3.6955 8:0.026714 9:0.86623 10:-0.34517 11:0.64514 
0 0 1 0 0 0:0.035967 1:0.80148 2:78.148 3:0.71586 4:16.9508 5:218.6847 6:3.0147 7:3.8093 8:0.024552 9:0.95248 10:-0.34435 11:0.64198 
0 0 1 0 0 0:0.035694 1:0.76946 2:78.0259 3:0.7203 4:16.932 5:218.2987 6:3.0162 7:3.7933 8:0.024848 9:0.93778 10:-0.34773 11:0.64708 
0 0.1671786713167789 0 0 0 0:0.032025 1:0.64338 2:78.2348 3:0.7482 4:16.9517 5:219.1008 6:3.0177 7:3.714 8:0.026424 9:0.87698 10:-0.30544 11:0.58198 
0 1 1 0 0 0:0.035634 1:0.6222 2:78.1462 3:0.75347 4:16.9457 5:218.9209 6:3.0135 7:3.6955 8:0.026714 9:0.86623 10:-0.34517 11:0.64514 
0 0 1 0 0 0:0.032201 1:0.99555 2:78.0103 3:0.68311 4:16.9403 5:218.1241 6:3.0103 7:3.9054 8:0.022819 9:1.0284 10:-0.2966 11:0.56414 
0 1 1 0 0 0:0.036341 1:0.49236 2:78.132 3:0.78557 4:16.9458 5:219.2864 6:3.0031 7:3.587 8:0.028868 9:0.78752 10:-0.35104 11:0.65261 
0 1 1 0 0 0:0.035846 1:0.55695 2:78.0069 3:0.76824 4:16.9356 5:218.7311 6:3.0049 7:3.6393 8:0.027694 9:0.82828 10:-0.34423 11:0.64232 
0 0 1 0 0 0:0.035289 1:0.54854 2:77.9704 3:0.77122 4:16.9258 5:218.5832 6:3.0074 7:3.6361 8:0.027852 9:0.82409 10:-0.33917 11:0.63466 
0 1 1 0 0 0:0.033257 1:0.57981 2:78.0876 3:0.76257 4:16.9423 5:218.8843 6:3.0087 7:3.6606 8:0.027321 9:0.84193 10:-0.31646 11:0.59789 
0 0 0.6909833101754488 0 0 0:0.035113 1:0.72324 2:78.1004 3:0.73207 4:16.9442 5:218.6483 6:3.0134 7:3.7602 8:0.025384 9:0.91854 10:-0.33308 11:0.62811 
0 0 1 0 0 0:0.036621 1:0.5078 2:77.9961 3:0.77951 4:16.93 5:218.6537 6:3.0091 7:3.6053 8:0.028512 9:0.79589 10:-0.35341 11:0.65749 
0 0 1 0 0 0:0.038022 1:0.72152 2:78.1064 3:0.72949 4:16.9531 5:218.6179 6:3.0135 7:3.7627 8:0.025423 9:0.91458 10:-0.36203 11:0.66839 
0 0 1 0 0 0:0.035289 1:0.80039 2:77.9532 3:0.71803 4:16.924 5:218.0586 6:3.015 7:3.8076 8:0.024563 9:0.95352 10:-0.33917 11:0.63466 
0 0 1 0 0 0:0.031963 1:0.9566 2:77.9963 3:0.69204 4:16.9326 5:218.0961 6:3.0124 7:3.8859 8:0.023128 9:1.0163 10:-0.29708 11:0.56601 
0 0 0 0 1 0:0.030445 1:1.0376 2:78.2734 3:0.67993 4:16.9539 5:218.7499 6:3.0212 7:3.9329 8:0.022469 9:1.0456 10:-0.28296 11:0.54393 
0 1 1 0 0 0:0.034156 1:0.58225 2:78.1554 3:0.76335 4:16.9561 5:219.2141 6:3.0035 7:3.6568 8:0.027324 9:0.84425 10:-0.32514 11:0.61151 
0 0 0 0 1 0:0.030445 1:1.0376 2:78.2734 3:0.67993 4:16.9539 5:218.7499 6:3.0212 7:3.9329 8:0.022469 9:1.0456 10:-0.28296 11:0.54393 
0 0 1 0 0 0:0.035825 1:0.65601 2:77.9662 3:0.74772 4:16.9305 5:218.4404 6:3.007 7:3.71 8:0.026276 9:0.88571 10:-0.34123 11:0.63937 
0 1 1 0 0 0:0.038022 1:0.45469 2:78.087 3:0.7957 4:16.9507 5:219.318 6:2.9958 7:3.5484 8:0.029634 9:0.76047 10:-0.36203 11:0.66839 
0 1 1 0 0 0:0.036029 1:0.56197 2:78.0077 3:0.76807 4:16.9303 5:218.691 6:3.0074 7:3.6454 8:0.02763 9:0.83252 10:-0.34965 11:0.65169 
0 0 1 0 0 0:0.031528 1:0.97165 2:78.0346 3:0.6854 4:16.9377 5:218.2115 6:3.0121 7:3.8957 8:0.023 9:1.0193 10:-0.29488 11:0.56182 
0 0 1 0 0 0:0.036005 1:0.6102 2:77.9918 3:0.75404 4:16.9305 5:218.4604 6:3.0116 7:3.6852 8:0.026851 9:0.85776 10:-0.34803 11:0.6489 
0 0.8121890482519955 0 0 0 0:0.032025 1:0.64338 2:78.2348 3:0.7482 4:16.9517 5:219.1008 6:3.0177 7:3.714 8:0.026424 9:0.87698 10:-0.30544 11:0.58198 
0 1 1 0 0 0:0.035042 1:0.67191 2:78.1183 3:0.74459 4:16.9451 5:218.8766 6:3.0095 7:3.724 8:0.026053 9:0.8945 10:-0.33786 11:0.63284 
0 0 1 0 0 0:0.031963 1:0.9566 2:77.9963 3:0.69204 4:16.9326 5:218.0961 6:3.0124 7:3.8859 8:0.023128 9:1.0163 10:-0.29708 11:0.56601 
0 0 1 0 0 0:0.034246 1:0.63351 2:77.971 3:0.74994 4:16.9368 5:218.4455 6:3.007 7:3.6973 8:0.026549 9:0.87141 10:-0.32343 11:0.61019 
0 1 1 0 0 0:0.035042 1:0.67399 2:78.1422 3:0.73967 4:16.9481 5:218.8853 6:3.0118 7:3.729 8:0.025979 9:0.89171 10:-0.33786 11:0.63284 
0 1 1 0 0 0:0.035967 1:0.49883 2:78.1366 3:0.78422 4:16.9496 5:219.3315 6:3.001 7:3.591 8:0.028751 9:0.7924 10:-0.34435 11:0.64198 
0 1 1 0 0 0:0.035213 1:0.54155 2:78.0934 3:0.77131 4:16.9414 5:218.9749 6:3.0079 7:3.631 8:0.027913 9:0.81853 10:-0.34008 11:0.63581 
0 0 1 0 1 0:0.030592 1:1.0576 2:78.0845 3:0.67419 4:16.9396 5:218.2796 6:3.0133 7:3.9358 8:0.02229 9:1.0513 10:-0.28453 11:0.54387 
0 1 1 0 0 0:0.035967 1:0.49883 2:78.1366 3:0.78422 4:16.9496 5:219.3315 6:3.001 7:3.591 8:0.028751 9:0.7924 10:-0.34435 11:0.64198 
0 0 1 0 0 0:0.035582 1:0.52547 2:78.0067 3:0.77582 4:16.9241 5:218.6528 6:3.0113 7:3.6217 8:0.028217 9:0.80847 10:-0.34666 11:0.64662 
0 1 1 0 0 0:0.035817 1:0.59341 2:78.0932 3:0.75929 4:16.9451 5:218.9114 6:3.0075 7:3.6687 8:0.027121 9:0.8495 10:-0.34148 11:0.63978 
0 0 1 0 0.5696893936036066 0:0.030275 1:1.0593 2:78.0203 3:0.67765 4:16.9323 5:218.0891 6:3.0124 7:3.9309 8:0.022343 9:1.0528 10:-0.27795 11:0.53261 
0 0 1 0 0 0:0.035139 1:0.63598 2:77.9487 3:0.74746 4:16.9281 5:218.314 6:3.0103 7:3.7026 8:0.026467 9:0.87142 10:-0.3359 11:0.63148 
0 0 0 0 1 0:0.030243 1:1.0643 2:77.9958 3:0.67599 4:16.9324 5:217.978 6:3.0127 7:3.9363 8:0.022256 9:1.0548 10:-0.27286 11:0.52454 
0 1 1 0 0 0:0.034156 1:0.83749 2:78.1732 3:0.70762 4:16.9581 5:218.8165 6:3.0107 7:3.8272 8:0.024167 9:0.96706 10:-0.32514 11:0.61151 
0 1 0 0 0 0:0.033044 1:0.62511 2:78.186 3:0.75148 4:16.9522 5:219.0691 6:3.0124 7:3.6969 8:0.026621 9:0.86741 10:-0.31123 11:0.59023 
0 0 1 0 0 0:0.035825 1:0.65601 2:77.9662 3:0.74772 4:16.9305 5:218.4404 6:3.007 7:3.71 8:0.026276 9:0.88571 10:-0.34123 11:0.63937 
0 0 1 0 0 0:0.035289 1:0.80039 2:77.9532 3:0.71803 4:16.924 5:218.0586 6:3.015 7:3.8076 8:0.024563 9:0.95352 10:-0.33917 11:0.63466 
0 1 1 0 0 0:0.035669 1:0.63421 2:78.1781 3:0.75256 4:16.9524 5:219.1117 6:3.0094 7:3.6978 8:0.026571 9:0.8744 10:-0.34183 11:0.64101 
0 0 1 0 0 0:0.036349 1:0.7108 2:77.9863 3:0.73167 4:16.9308 5:218.2783 6:3.0137 7:3.7556 8:0.0255 9:0.91033 10:-0.35186 11:0.65347 
0 0 1 0 0 0:0.031206 1:1.0499 2:77.8225 3:0.67429 4:16.9274 5:217.5711 6:3.004 7:3.9251 8:0.022338 9:1.0483 10:-0.27705 11:0.53035 
0 1 1 0 0 0:0.035846 1:0.55695 2:78.0069 3:0.76824 4:16.9356 5:218.7311 6:3.0049 7:3.6393 8:0.027694 9:0.82828 10:-0.34423 11:0.64232 
0 0 1 0 0 0:0.035139 1:0.70333 2:77.9553 3:0.7368 4:16.9289 5:218.2828 6:3.0097 7:3.7443 8:0.025636 9:0.90934 10:-0.3359 11:0.63148 
0 0 1 0 0 0:0.035213 1:0.7894 2:78.1039 3:0.7197 4:16.9427 5:218.5766 6:3.0144 7:3.8017 8:0.024661 9:0.94883 10:-0.34008 11:0.63581 
0 1 1 0 0 0:0.035694 1:0.51368 2:78.0225 3:0.77919 4:16.9319 5:218.8605 6:3.0049 7:3.606 8:0.028438 9:0.80115 10:-0.34773 11:0.64708 
0 0 1 0 0 0:0.034246 1:0.79365 2:77.9784 3:0.71672 4:16.9373 5:218.215 6:3.0104 7:3.8021 8:0.024606 9:0.94925 10:-0.32343 11:0.61019 
0 0 0.1009365797745313 0 0 0:0.031101 1:1.003 2:77.9527 3:0.68122 4:16.9326 5:217.9141 6:3.011 7:3.9095 8:0.022763 9:1.0307 10:-0.28234 11:0.5409 
0 0 1 0 0 0:0.035846 1:0.73386 2:78.0114 3:0.7288 4:16.9362 5:218.3768 6:3.0117 7:3.7671 8:0.02526 9:0.92257 10:-0.34423 11:0.64232 
0 0 1 0 0.9361107019406773 0:0.030275 1:1.0593 2:78.0203 3:0.67765 4:16.9323 5:218.0891 6:3.0124 7:3.9309 8:0.022343 9:1.0528 10:-0.27795 11:0.53261 
0 0 1 0 0 0:0.035215 1:0.63671 2:78.0526 3:0.74943 4:16.9361 5:218.6277 6:3.0122 7:3.7041 8:0.026492 9:0.87369 10:-0.33853 11:0.63627 
0 1 1 0 0 0:0.035817 1:0.59341 2:78.0932 3:0.75929 4:16.9451 5:218.9114 6:3.0075 7:3.6687 8:0.027121 9:0.8495 10:-0.34148 11:0.63978 
0 1 1 0 0 0:0.034156 1:0.83749 2:78.1732 3:0.70762 4:16.9581 5:218.8165 6:3.0107 7:3.8272 8:0.024167 9:0.96706 10:-0.32514 11:0.61151 
0 0 1 0 0 0:0.036005 1:0.662 2:77.9695 3:0.7447 4:16.9274 5:218.3283 6:3.0119 7:3.7209 8:0.026145 9:0.88809 10:-0.34803 11:0.6489 
0 0 1 0 0 0:0.036341 1:0.76741 2:78.1196 3:0.72087 4:16.9446 5:218.5715 6:3.0173 7:3.7928 8:0.024912 9:0.93619 10:-0.35104 11:0.65261 
0 0 1 0 0 0:0.031528 1:0.97165 2:78.0346 3:0.6854 4:16.9377 5:218.2115 6:3.0121 7:3.8957 8:0.023 9:1.0193 10:-0.29488 11:0.56182 
0 0 1 0 1 0:0.030592 1:1.0576 2:78.0845 3:0.67419 4:16.9396 5:218.2796 6:3.0133 7:3.9358 8:0.02229 9:1.0513 10:-0.28453 11:0.54387 
0 0 1 0 0 0:0.035213 1:0.7894 2:78.1039 3:0.7197 4:16.9427 5:218.5766 6:3.0144 7:3.8017 8:0.024661 9:0.94883 10:-0.34008 11:0.63581 
0 1 1 0 0 0:0.036349 1:0.5307 2:77.9661 3:0.7744 4:16.9283 5:218.6228 6:3.0055 7:3.6195 8:0.028139 9:0.81126 10:-0.35186 11:0.65347 
0 0 1 0 0 0:0.035217 1:0.6297 2:78.0521 3:0.74864 4:16.9383 5:218.6331 6:3.0117 7:3.6988 8:0.026558 9:0.8677 10:-0.33601 11:0.6309 
0 0 1 0 0 0:0.035831 1:0.65521 2:78.1182 3:0.74261 4:16.9435 5:218.752 6:3.0148 7:3.7206 8:0.026193 9:0.88141 10:-0.34905 11:0.65023 
0 1 1 0 0 0:0.035831 1:0.62796 2:78.1048 3:0.75178 4:16.9419 5:218.8309 6:3.0114 7:3.6978 8:0.026606 9:0.86953 10:-0.34905 11:0.65023 
0 0 1 0 0 0:0.035825 1:0.64402 2:77.9486 3:0.74548 4:16.9279 5:218.3231 6:3.0097 7:3.7074 8:0.026337 9:0.87592 10:-0.34123 11:0.63937 
0 1 0 0 0 0:0.035669 1:0.66961 2:78.1987 3:0.73868 4:16.9547 5:218.9984 6:3.0146 7:3.7289 8:0.026019 9:0.88767 10:-0.34183 11:0.64101 
0 0 0.7224093822059498 0 0 0:0.031101 1:1.003 2:77.9527 3:0.68122 4:16.9326 5:217.9141 6:3.011 7:3.9095 8:0.022763 9:1.0307 10:-0.28234 11:0.5409 
0 0 1 0 0 0:0.035113 1:0.72324 2:78.1004 3:0.73207 4:16.9442 5:218.6483 6:3.0134 7:3.7602 8:0.025384 9:0.91854 10:-0.33308 11:0.62811 
0 0 1 0 0 0:0.035271 1:0.58019 2:78.0333 3:0.76211 4:16.9358 5:218.6531 6:3.0106 7:3.6619 8:0.027322 9:0.84141 10:-0.33555 11:0.63217 
0 0 1 0 0 0:0.035217 1:0.6297 2:78.0521 3:0.74864 4:16.9383 5:218.6331 6:3.0117 7:3.6988 8:0.026558 9:0.8677 10:-0.33601 11:0.6309 
0 0 1 0 0 0:0.035967 1:0.80148 2:78.148 3:0.71586 4:16.9508 5:218.6847 6:3.0147 7:3.8093 8:0.024552 9:0.95248 10:-0.34435 11:0.64198 
0 0 1 0 0 0:0.036349 1:0.7108 2:77.9863 3:0.73167 4:16.9308 5:218.2783 6:3.0137 7:3.7556 8:0.0255 9:0.91033 10:-0.35186 11:0.65347 
0 0 1 0 0 0:0.035287 1:0.62162 2:77.9368 3:0.7539 4:16.9262 5:218.2855 6:3.0105 7:3.6906 8:0.026737 9:0.86605 10:-0.33585 11:0.63218 
0 0 1 0 0 0:0.032482 1:0.83363 2:78.0216 3:0.71049 4:16.9388 5:218.3309 6:3.0107 7:3.8226 8:0.024211 9:0.96686 10:-0.30204 11:0.57565 
0 1 1 0 0 0:0.035042 1:0.67191 2:78.1183 3:0.74459 4:16.9451 5:218.8766 6:3.0095 7:3.724 8:0.026053 9:0.8945 10:-0.33786 11:0.63284 
0 1 1 0 0 0:0.035213 1:0.54155 2:78.0934 3:0.77131 4:16.9414 5:218.9749 6:3.0079 7:3.631 8:0.027913 9:0.81853 10:-0.34008 11:0.63581 
0 0 1 0 0 0:0.031206 1:1.0499 2:77.8225 3:0.67429 4:16.9274 5:217.5711 6:3.004 7:3.9251 8:0.022338 9:1.0483 10:-0.27705 11:0.53035 
0 1 1 0 0 0:0.036029 1:0.56197 2:78.0077 3:0.76807 4:16.9303 5:218.691 6:3.0074 7:3.6454 8:0.02763 9:0.83252 10:-0.34965 11:0.65169 
0 1 0 0 0 0:0.035669 1:0.66961 2:78.1987 3:0.73868 4:16.9547 5:218.9984 6:3.0146 7:3.7289 8:0.026019 9:0.88767 10:-0.34183 11:0.64101 
0 0 1 0 0 0:0.035139 1:0.70333 2:77.9553 3:0.7368 4:16.9289 5:218.2828 6:3.0097 7:3.7443 8:0.025636 9:0.90934 10:-0.3359 11:0.63148 
0 0 1 0 0 0:0.035215 1:0.63671 2:78.0526 3:0.74943 4:16.9361 5:218.6277 6:3.0122 7:3.7041 8:0.026492 9:0.87369 10:-0.33853 11:0.63627 
0 0 1 0 0 0:0.035139 1:0.63598 2:77.9487 3:0.74746 4:16.9281 5:218.314 6:3.0103 7:3.7026 8:0.026467 9:0.87142 10:-0.3359 11:0.63148 
0 0 1 0 0 0:0.035479 1:0.74527 2:77.8818 3:0.72526 4:16.915 5:217.8957 6:3.0146 7:3.7771 8:0.025117 9:0.9269 10:-0.34361 11:0.64108 
0 0 1 0 0 0:0.035271 1:0.58019 2:78.0333 3:0.76211 4:16.9358 5:218.6531 6:3.0106 7:3.6619 8:0.027322 9:0.84141 10:-0.33555 11:0.63217 
0 0 1 0 0 0:0.036005 1:0.6102 2:77.9918 3:0.75404 4:16.9305 5:218.4604 6:3.0116 7:3.6852 8:0.026851 9:0.85776 10:-0.34803 11:0.6489 
0 0 1 0 0 0:0.037254 1:0.56896 2:78.0783 3:0.76476 4:16.9377 5:218.7596 6:3.0132 7:3.6575 8:0.027482 9:0.83514 10:-0.36347 11:0.67216 
0 0 1 0 0 0:0.037254 1:0.56896 2:78.0783 3:0.76476 4:16.9377 5:218.7596 6:3.0132 7:3.6575 8:0.027482 9:0.83514 10:-0.36347 11:0.67216 
0 0 1 0 0 0:0.035479 1:0.55978 2:77.8741 3:0.76944 4:16.9143 5:218.3093 6:3.0055 7:3.6419 8:0.027692 9:0.83171 10:-0.34361 11:0.64108 
0 0 1 0 0 0:0.035479 1:0.74527 2:77.8818 3:0.72526 4:16.915 5:217.8957 6:3.0146 7:3.7771 8:0.025117 9:0.9269 10:-0.34361 11:0.64108 
0 1 1 0 0 0:0.033257 1:0.57981 2:78.0876 3:0.76257 4:16.9423 5:218.8843 6:3.0087 7:3.6606 8:0.027321 9:0.84193 10:-0.31646 11:0.59789 
0 0 1 0 0 0:0.032482 1:0.83363 2:78.0216 3:0.71049 4:16.9388 5:218.3309 6:3.0107 7:3.8226 8:0.024211 9:0.96686 10:-0.30204 11:0.57565 
0 0 1 0 0 0:0.035582 1:0.52547 2:78.0067 3:0.77582 4:16.9241 5:218.6528 6:3.0113 7:3.6217 8:0.028217 9:0.80847 10:-0.34666 11:0.64662 
0 0 1 0 0 0:0.035825 1:0.64402 2:77.9486 3:0.74548 4:16.9279 5:218.3231 6:3.0097 7:3.7074 8:0.026337 9:0.87592 10:-0.34123 11:0.63937 
0 1 1 0 0 0:0.035831 1:0.62796 2:78.1048 3:0.75178 4:16.9419 5:218.8309 6:3.0114 7:3.6978 8:0.026606 9:0.86953 10:-0.34905 11:0.65023 
0 0 1 0 0 0:0.036621 1:0.5078 2:77.9961 3:0.77951 4:16.93 5:218.6537 6:3.0091 7:3.6053 8:0.028512 9:0.79589 10:-0.35341 11:0.65749 
0 1 1 0 0 0:0.035042 1:0.67399 2:78.1422 3:0.73967 4:16.9481 5:218.8853 6:3.0118 7:3.729 8:0.025979 9:0.89171 10:-0.33786 11:0.63284 
0 0 1 0 0 0:0.035287 1:0.62162 2:77.9368 3:0.7539 4:16.9262 5:218.2855 6:3.0105 7:3.6906 8:0.026737 9:0.86605 10:-0.33585 11:0.63218 
0 0 1 0 0 0:0.032201 1:0.99555 2:78.0103 3:0.68311 4:16.9403 5:218.1241 6:3.0103 7:3.9054 8:0.022819 9:1.0284 10:-0.2966 11:0.56414 
0 1 1 0 0 0:0.035669 1:0.63421 2:78.1781 3:0.75256 4:16.9524 5:219.1117 6:3.0094 7:3.6978 8:0.026571 9:0.8744 10:-0.34183 11:0.64101 
0 1 0 0 0 0:0.033044 1:0.62511 2:78.186 3:0.75148 4:16.9522 5:219.0691 6:3.0124 7:3.6969 8:0.026621 9:0.86741 10:-0.31123 11:0.59023 
0 0 1 0 0 0:0.035817 1:0.71125 2:78.0901 3:0.73264 4:16.9445 5:218.6528 6:3.0122 7:3.7529 8:0.025512 9:0.91123 10:-0.34148 11:0.63978 
0 0 1 0 0 0:0.035217 1:0.71913 2:78.0607 3:0.73468 4:16.9395 5:218.5839 6:3.0112 7:3.7542 8:0.025479 9:0.91727 10:-0.33601 11:0.6309 
0 1 1 0 0 0:0.036148 1:0.61853 2:78.1284 3:0.75353 4:16.945 5:218.8642 6:3.0133 7:3.6929 8:0.026752 9:0.86364 10:-0.34958 11:0.65107 
0 0 1 0 0 0:0.035817 1:0.71125 2:78.0901 3:0.73264 4:16.9445 5:218.6528 6:3.0122 7:3.7529 8:0.025512 9:0.91123 10:-0.34148 11:0.63978 
0 0 1 0 0 0:0.035831 1:0.65521 2:78.1182 3:0.74261 4:16.9435 5:218.752 6:3.0148 7:3.7206 8:0.026193 9:0.88141 10:-0.34905 11:0.65023 
0 0 1 0 0 0:0.034223 1:0.67737 2:77.9378 3:0.74396 4:16.924 5:218.2294 6:3.0111 7:3.7288 8:0.026022 9:0.89688 10:-0.3274 11:0.61809 
0 0 1 0 0 0:0.038022 1:0.72152 2:78.1064 3:0.72949 4:16.9531 5:218.6179 6:3.0135 7:3.7627 8:0.025423 9:0.91458 10:-0.36203 11:0.66839 
0 0 1 0 0 0:0.034246 1:0.79365 2:77.9784 3:0.71672 4:16.9373 5:218.215 6:3.0104 7:3.8021 8:0.024606 9:0.94925 10:-0.32343 11:0.61019 
0 1 1 0 0 0:0.034156 1:0.58225 2:78.1554 3:0.76335 4:16.9561 5:219.2141 6:3.0035 7:3.6568 8:0.027324 9:0.84425 10:-0.32514 11:0.61151 
0 0 1 0 0 0:0.036341 1:0.76741 2:78.1196 3:0.72087 4:16.9446 5:218.5715 6:3.0173 7:3.7928 8:0.024912 9:0.93619 10:-0.35104 11:0.65261 
0 1 1 0 0 0:0.036349 1:0.5307 2:77.9661 3:0.7744 4:16.9283 5:218.6228 6:3.0055 7:3.6195 8:0.028139 9:0.81126 10:-0.35186 11:0.65347 
0 0 1 0 0 0:0.036005 1:0.662 2:77.9695 3:0.7447 4:16.9274 5:218.3283 6:3.0119 7:3.7209 8:0.026145 9:0.88809 10:-0.34803 11:0.6489 
0 0 1 0 0 0:0.035479 1:0.55978 2:77.8741 3:0.76944 4:16.9143 5:218.3093 6:3.0055 7:3.6419 8:0.027692 9:0.83171 10:-0.34361 11:0.64108 
0 1 1 0 0 0:0.035694 1:0.51368 2:78.0225 3:0.77919 4:16.9319 5:218.8605 6:3.0049 7:3.606 8:0.028438 9:0.80115 10:-0.34773 11:0.64708 
0 1 1 0.1103833690760205 0 0:0.038022 1:0.45469 2:78.087 3:0.7957 4:16.9507 5:219.318 6:2.9958 7:3.5484 8:0.029634 9:0.76047 10:-0.36203 11:0.66839 
0 1 1 0 0 0:0.036148 1:0.61853 2:78.1284 3:0.75353 4:16.945 5:218.8642 6:3.0133 7:3.6929 8:0.026752 9:0.86364 10:-0.34958 11:0.65107 
0 0 1 0 0 0:0.034246 1:0.63351 2:77.971 3:0.74994 4:16.9368 5:218.4455 6:3.007 7:3.6973 8:0.026549 9:0.87141 10:-0.32343 11:0.61019 
0 0 1 0 0 0:0.035846 1:0.73386 2:78.0114 3:0.7288 4:16.9362 5:218.3768 6:3.0117 7:3.7671 8:0.02526 9:0.92257 10:-0.34423 11:0.64232 
0 0 1 0 0 0:0.034223 1:0.67737 2:77.9378 3:0.74396 4:16.924 5:218.2294 6:3.0111 7:3.7288 8:0.026022 9:0.89688 10:-0.3274 11:0.61809 
0 1 1 0 0 0:0.036341 1:0.49236 2:78.132 3:0.78557 4:16.9458 5:219.2864 6:3.0031 7:3.587 8:0.028868 9:0.78752 10:-0.35104 11:0.65261 
0 0 1 0 0 0:0.034318 1:0.81139 2:77.9977 3:0.71509 4:16.93 5:218.2327 6:3.0135 7:3.8116 8:0.024462 9:0.95729 10:-0.32995 11:0.62044 
0 0.1829756494523581 0 0 0 0:0.03492 1:0.55956 2:78.1252 3:0.76653 4:16.9415 5:218.9356 6:3.0132 7:3.6503 8:0.027612 9:0.82922 10:-0.33816 11:0.63433 
0 1 1 0 0 0:0.032768 1:0.8854 2:78.398 3:0.70207 4:16.9807 5:219.4679 6:3.013 7:3.8528 8:0.023749 9:0.98797 10:-0.30904 11:0.58707 
0 0 1 0 0 0:0.036927 1:0.5278 2:78.0069 3:0.77496 4:16.9336 5:218.6602 6:3.0089 7:3.6211 8:0.028178 9:0.80944 10:-0.35282 11:0.65745 
0 0 1 0 0 0:0.037103 1:0.61551 2:78.0074 3:0.75408 4:16.9406 5:218.4853 6:3.0106 7:3.6886 8:0.026807 9:0.86146 10:-0.35263 11:0.65696 
0 1 1 0 0 0:0.032768 1:0.8854 2:78.398 3:0.70207 4:16.9807 5:219.4679 6:3.013 7:3.8528 8:0.023749 9:0.98797 10:-0.30904 11:0.58707 
0 1 0 1 0 0:0.032768 1:0.66087 2:78.4325 3:0.74457 4:16.9846 5:219.8604 6:3.0111 7:3.7196 8:0.026168 9:0.88687 10:-0.30904 11:0.58707 
0 1 0 0 0 0:0.034552 1:0.67573 2:78.1799 3:0.74172 4:16.9528 5:218.9976 6:3.0122 7:3.7298 8:0.025968 9:0.895 10:-0.3321 11:0.62651 
0 0 1 0 0 0:0.036927 1:0.5278 2:78.0069 3:0.77496 4:16.9336 5:218.6602 6:3.0089 7:3.6211 8:0.028178 9:0.80944 10:-0.35282 11:0.65745 
0 0 1 0 0 0:0.033613 1:0.63511 2:77.8285 3:0.75094 4:16.9206 5:218.03 6:3.0048 7:3.696 8:0.026527 9:0.87385 10:-0.31581 11:0.59782 
0 1 1 0 0 0:0.035522 1:0.67476 2:78.1639 3:0.74201 4:16.9488 5:218.8878 6:3.0147 7:3.7309 8:0.026015 9:0.89393 10:-0.34332 11:0.64423 
0 0 1 0 0 0:0.035952 1:0.65021 2:78.0118 3:0.74819 4:16.93 5:218.4436 6:3.0138 7:3.7134 8:0.026363 9:0.8816 10:-0.34862 11:0.65143 
0 1 1 0 0 0:0.034888 1:0.67693 2:78.1551 3:0.73877 4:16.9492 5:218.9025 6:3.0127 7:3.7323 8:0.025932 9:0.89312 10:-0.33718 11:0.63233 
0 0 1 0 0 0:0.034949 1:0.66511 2:77.886 3:0.74443 4:16.919 5:218.0479 6:3.0117 7:3.7219 8:0.026137 9:0.88938 10:-0.33565 11:0.63178 
0 1 1 0 0 0:0.03406 1:0.66529 2:78.0629 3:0.74491 4:16.9426 5:218.7073 6:3.0084 7:3.7183 8:0.026149 9:0.88971 10:-0.32579 11:0.61466 
0 0 1 0 0 0:0.03628 1:0.62158 2:77.9687 3:0.75316 4:16.928 5:218.3686 6:3.0117 7:3.6926 8:0.026722 9:0.86539 10:-0.35049 11:0.65429 
0 0 1 0 0 0:0.035952 1:0.65021 2:78.0118 3:0.74819 4:16.93 5:218.4436 6:3.0138 7:3.7134 8:0.026363 9:0.8816 10:-0.34862 11:0.65143 
0 0 1 0 0 0:0.033613 1:0.63511 2:77.8285 3:0.75094 4:16.9206 5:218.03 6:3.0048 7:3.696 8:0.026527 9:0.87385 10:-0.31581 11:0.59782 
0 1 1 0 0 0:0.034888 1:0.67332 2:78.1465 3:0.74312 4:16.9479 5:218.9382 6:3.0106 7:3.7265 8:0.026036 9:0.89385 10:-0.33718 11:0.63233 
0 1 0 0 0 0:0.033261 1:0.68707 2:78.1704 3:0.73862 4:16.9504 5:218.9666 6:3.012 7:3.7364 8:0.025839 9:0.89968 10:-0.31787 11:0.60222 
0 0 1 0 0 0:0.037103 1:0.61551 2:78.0074 3:0.75408 4:16.9406 5:218.4853 6:3.0106 7:3.6886 8:0.026807 9:0.86146 10:-0.35263 11:0.65696 
0 1 1 0 0 0:0.034888 1:0.67693 2:78.1551 3:0.73877 4:16.9492 5:218.9025 6:3.0127 7:3.7323 8:0.025932 9:0.89312 10:-0.33718 11:0.63233 
0 0 1 0 0 0:0.03628 1:0.62158 2:77.9687 3:0.75316 4:16.928 5:218.3686 6:3.0117 7:3.6926 8:0.026722 9:0.86539 10:-0.35049 11:0.65429 
0 0 1 0 0 0:0.033613 1:0.84664 2:77.8126 3:0.70485 4:16.9189 5:217.6312 6:3.0096 7:3.8317 8:0.024062 9:0.97022 10:-0.31581 11:0.59782 
0 0 1 0 0 0:0.034318 1:0.58846 2:78.021 3:0.7609 4:16.9324 5:218.6714 6:3.0086 7:3.6662 8:0.02719 9:0.84735 10:-0.32995 11:0.62044 
0 1 1 0 0 0:0.035522 1:0.67476 2:78.1639 3:0.74201 4:16.9488 5:218.8878 6:3.0147 7:3.7309 8:0.026015 9:0.89393 10:-0.34332 11:0.64423 
0.5136333315563757 1 0 1 0 0:0.032768 1:0.66087 2:78.4325 3:0.74457 4:16.9846 5:219.8604 6:3.0111 7:3.7196 8:0.026168 9:0.88687 10:-0.30904 11:0.58707 
0 0 1 0 0 0:0.034949 1:0.66511 2:77.886 3:0.74443 4:16.919 5:218.0479 6:3.0117 7:3.7219 8:0.026137 9:0.88938 10:-0.33565 11:0.63178 
0 1 1 0 0 0:0.03406 1:0.66529 2:78.0629 3:0.74491 4:16.9426 5:218.7073 6:3.0084 7:3.7183 8:0.026149 9:0.88971 10:-0.32579 11:0.61466 
0 0 1 0 0 0:0.033613 1:0.84664 2:77.8126 3:0.70485 4:16.9189 5:217.6312 6:3.0096 7:3.8317 8:0.024062 9:0.97022 10:-0.31581 11:0.59782 
0 1 0 0 0 0:0.033261 1:0.79259 2:78.1671 3:0.71719 4:16.9501 5:218.803 6:3.0137 7:3.8029 8:0.024658 9:0.9481 10:-0.31787 11:0.60222 
0 0 1 0 0 0:0.03406 1:0.74552 2:78.0759 3:0.72423 4:16.944 5:218.5643 6:3.0121 7:3.7751 8:0.025112 9:0.92611 10:-0.32579 11:0.61466 
0 0 1 0 0 0:0.034318 1:0.58846 2:78.021 3:0.7609 4:16.9324 5:218.6714 6:3.0086 7:3.6662 8:0.02719 9:0.84735 10:-0.32995 11:0.62044 
0 0 1 0 0 0:0.035242 1:0.54488 2:77.7839 3:0.77065 4:16.9027 5:217.8604 6:3.0117 7:3.6378 8:0.027874 9:0.82051 10:-0.3414 11:0.64017 
0 1 1 0 0 0:0.034871 1:0.57633 2:78.0602 3:0.76495 4:16.9384 5:218.8779 6:3.006 7:3.655 8:0.027412 9:0.84115 10:-0.33581 11:0.62973 
0 0 1 0 0 0:0.034871 1:0.7817 2:78.0541 3:0.71771 4:16.9378 5:218.4412 6:3.0135 7:3.7975 8:0.024721 9:0.94291 10:-0.33581 11:0.62973 
0 0 1 0 0 0:0.034318 1:0.81139 2:77.9977 3:0.71509 4:16.93 5:218.2327 6:3.0135 7:3.8116 8:0.024462 9:0.95729 10:-0.32995 11:0.62044 
0 0 1 0 0 0:0.03406 1:0.74552 2:78.0759 3:0.72423 4:16.944 5:218.5643 6:3.0121 7:3.7751 8:0.025112 9:0.92611 10:-0.32579 11:0.61466 
0 1 0 0 0 0:0.035522 1:0.62505 2:78.1597 3:0.75045 4:16.9483 5:218.9353 6:3.0143 7:3.6989 8:0.026629 9:0.86594 10:-0.34332 11:0.64423 
0 1 1 0 0 0:0.034871 1:0.57633 2:78.0602 3:0.76495 4:16.9384 5:218.8779 6:3.006 7:3.655 8:0.027412 9:0.84115 10:-0.33581 11:0.62973 
0 1 0 0 0 0:0.03492 1:0.55956 2:78.1252 3:0.76653 4:16.9415 5:218.9356 6:3.0132 7:3.6503 8:0.027612 9:0.82922 10:-0.33816 11:0.63433 
0 0 1 0 0 0:0.035242 1:0.54488 2:77.7839 3:0.77065 4:16.9027 5:217.8604 6:3.0117 7:3.6378 8:0.027874 9:0.82051 10:-0.3414 11:0.64017 
0 1 1 0 0 0:0.034888 1:0.67332 2:78.1465 3:0.74312 4:16.9479 5:218.9382 6:3.0106 7:3.7265 8:0.026036 9:0.89385 10:-0.33718 11:0.63233 
0 1 0 0 0 0:0.035522 1:0.62505 2:78.1597 3:0.75045 4:16.9483 5:218.9353 6:3.0143 7:3.6989 8:0.026629 9:0.86594 10:-0.34332 11:0.64423 
0 0 1 0 0 0:0.03344 1:0.72603 2:78.1026 3:0.73195 4:16.9421 5:218.7123 6:3.0118 7:3.7605 8:0.0254 9:0.91917 10:-0.32234 11:0.60904 
0 1 0 0 0 0:0.034552 1:0.67573 2:78.1799 3:0.74172 4:16.9528 5:218.9976 6:3.0122 7:3.7298 8:0.025968 9:0.895 10:-0.3321 11:0.62651 
0 1 0 0 0 0:0.033261 1:0.79259 2:78.1671 3:0.71719 4:16.9501 5:218.803 6:3.0137 7:3.8029 8:0.024658 9:0.9481 10:-0.31787 11:0.60222 
0 0.2373962274618141 1 0 0 0:0.03344 1:0.72603 2:78.1026 3:0.73195 4:16.9421 5:218.7123 6:3.0118 7:3.7605 8:0.0254 9:0.91917 10:-0.32234 11:0.60904 
0 0 1 0 0 0:0.034871 1:0.7817 2:78.0541 3:0.71771 4:16.9378 5:218.4412 6:3.0135 7:3.7975 8:0.024721 9:0.94291 10:-0.33581 11:0.62973 
0 1 0 0 0 0:0.033261 1:0.68707 2:78.1704 3:0.73862 4:16.9504 5:218.9666 6:3.012 7:3.7364 8:0.025839 9:0.89968 10:-0.31787 11:0.60222 
-0 0 0 1 0 0:0.053926 1:0.47559 2:77.9659 3:0.78856 4:16.9255 5:222.675 6:2.8633 7:3.4258 8:0.029137 9:0.77435 10:-0.4302 11:0.72509 
-0 0 0 1 0 0:0.049521 1:0.44133 2:77.8524 3:0.79931 4:16.9143 5:222.1813 6:2.8682 7:3.4039 8:0.029917 9:0.75025 10:-0.40863 11:0.7013 
-0 0 0 1 0 0:0.052696 1:0.50269 2:77.9141 3:0.7861 4:16.9185 5:222.8204 6:2.8512 7:3.4369 8:0.028771 9:0.79798 10:-0.42282 11:0.71365 
-0 0 0 1 0 0:0.049439 1:0.39853 2:77.9558 3:0.81384 4:16.9324 5:222.7987 6:2.8588 7:3.3592 8:0.031057 9:0.71788 10:-0.40751 11:0.6999 
-0 0 0.04676664915824142 1 0 0:0.047557 1:0.56814 2:78.0125 3:0.76697 4:16.9339 5:221.9925 6:2.8891 7:3.5231 8:0.027518 9:0.83702 10:-0.40518 11:0.69952 
-0 0 0 1 0 0:0.052405 1:0.50429 2:78.0255 3:0.78274 4:16.9339 5:222.7834 6:2.8652 7:3.4514 8:0.028626 9:0.79652 10:-0.41804 11:0.71136 
-0 0 0 1 0 0:0.05102 1:0.49593 2:78.0506 3:0.78779 4:16.9324 5:222.9707 6:2.8627 7:3.4436 8:0.028898 9:0.79346 10:-0.41955 11:0.71091 
-0 0 0 1 0 0:0.051471 1:0.3758 2:78.0472 3:0.82244 4:16.936 5:223.1415 6:2.8597 7:3.3413 8:0.031779 9:0.70001 10:-0.44109 11:0.74054 
-0 0 0 1 0 0:0.049382 1:0.62802 2:77.9588 3:0.75332 4:16.9271 5:222.4136 6:2.8658 7:3.5365 8:0.026592 9:0.87172 10:-0.386 11:0.66872 
-0 0 0 0.4731978590176111 0 0:0.050013 1:0.39527 2:78.0573 3:0.81731 4:16.9375 5:223.3792 6:2.8517 7:3.3516 8:0.031289 9:0.71839 10:-0.4159 11:0.71035 
-0 0 0 1 0 0:0.049111 1:0.47582 2:78.0541 3:0.78939 4:16.9344 5:222.3499 6:2.8855 7:3.4498 8:0.029163 9:0.77562 10:-0.41798 11:0.71508 
-0 0 0 1 0 0:0.05117 1:0.36821 2:78.095 3:0.82396 4:16.9441 5:223.3021 6:2.8594 7:3.3325 8:0.03194 9:0.6917 10:-0.43879 11:0.7381 
-0 0 0 1 0 0:0.05014 1:0.37879 2:78.0087 3:0.82214 4:16.9348 5:223.0591 6:2.8573 7:3.3425 8:0.031735 9:0.70359 10:-0.42353 11:0.72176 
-0 0 0 1 0 0:0.049439 1:0.53384 2:77.9688 3:0.77304 4:16.9334 5:222.1027 6:2.8803 7:3.4892 8:0.028035 9:0.81356 10:-0.40751 11:0.6999 
-0 0 0 1 0 0:0.05014 1:0.49841 2:78.0474 3:0.78541 4:16.9392 5:222.3719 6:2.882 7:3.4649 8:0.028791 9:0.7934 10:-0.42353 11:0.72176 
-0 0 0 1 0 0:0.051471 1:0.42513 2:78.0603 3:0.80546 4:16.9372 5:222.7446 6:2.8736 7:3.3974 8:0.03036 9:0.73941 10:-0.44109 11:0.74054 
-0 0 0 1 0 0:0.050947 1:0.50644 2:78.1867 3:0.78236 4:16.9569 5:223.3749 6:2.8623 7:3.4508 8:0.028601 9:0.79791 10:-0.4145 11:0.70515 
-0 0 0 1 0 0:0.054307 1:0.423 2:78.0466 3:0.80812 4:16.9337 5:223.3207 6:2.852 7:3.3751 8:0.03052 9:0.74006 10:-0.4527 11:0.74895 
-0 0 0 1 0 0:0.050169 1:0.60347 2:78.0287 3:0.76217 4:16.9345 5:222.769 6:2.8625 7:3.5188 8:0.027035 9:0.86053 10:-0.39966 11:0.68493 
-0 0 0 1 0 0:0.051464 1:0.5104 2:77.8737 3:0.7834 4:16.9083 5:222.4023 6:2.8621 7:3.4547 8:0.02859 9:0.80266 10:-0.41812 11:0.7083 
-0 0 0 1 0 0:0.05185 1:0.46711 2:78.0674 3:0.7951 4:16.9427 5:222.9601 6:2.8644 7:3.4231 8:0.029484 9:0.77271 10:-0.43234 11:0.72825 
-0 0 0 1 0 0:0.054473 1:0.41981 2:77.9216 3:0.80641 4:16.9212 5:222.9825 6:2.8489 7:3.3666 8:0.03046 9:0.73432 10:-0.43045 11:0.72398 
-0 0 0 1 0 0:0.049731 1:0.58402 2:78.0236 3:0.76646 4:16.9379 5:222.7496 6:2.8624 7:3.5058 8:0.027346 9:0.84901 10:-0.4028 11:0.68943 
-0 0 0 1 0 0:0.05117 1:0.43606 2:78.1078 3:0.80324 4:16.9454 5:222.8716 6:2.8738 7:3.4075 8:0.030153 9:0.74898 10:-0.43879 11:0.7381 
-0 0 0 1 0 0:0.054307 1:0.423 2:78.0466 3:0.80812 4:16.9337 5:223.3207 6:2.852 7:3.3751 8:0.03052 9:0.74006 10:-0.4527 11:0.74895 
-0 0 0 1 0 0:0.05217 1:0.41318 2:78.0128 3:0.8097 4:16.9343 5:223.1207 6:2.8546 7:3.3679 8:0.030692 9:0.73061 10:-0.43194 11:0.72753 
-0 0 0 1 0 0:0.049227 1:0.39072 2:77.9604 3:0.81603 4:16.9273 5:222.6805 6:2.865 7:3.3582 8:0.031252 9:0.71087 10:-0.42084 11:0.71763 
-0 0 0 1 0 0:0.050908 1:0.46823 2:78.3185 3:0.79257 4:16.9678 5:223.882 6:2.8622 7:3.4203 8:0.029364 9:0.77134 10:-0.41693 11:0.70883 
-0 0 0 1 0 0:0.049227 1:0.39072 2:77.9604 3:0.81603 4:16.9273 5:222.6805 6:2.865 7:3.3582 8:0.031252 9:0.71087 10:-0.42084 11:0.71763 
-0 0 0 1 0 0:0.048357 1:0.57475 2:77.9767 3:0.76605 4:16.9241 5:222.4139 6:2.8708 7:3.5094 8:0.027422 9:0.84165 10:-0.40003 11:0.68896 
-0 0 0 1 0 0:0.049227 1:0.48899 2:77.9422 3:0.7864 4:16.9255 5:222.0295 6:2.8824 7:3.4578 8:0.028927 9:0.78531 10:-0.42084 11:0.71763 
-0 0 0 1 0 0:0.049521 1:0.44133 2:77.8524 3:0.79931 4:16.9143 5:222.1813 6:2.8682 7:3.4039 8:0.029917 9:0.75025 10:-0.40863 11:0.7013 
-0 0 0 1 0 0:0.052405 1:0.50429 2:78.0255 3:0.78274 4:16.9339 5:222.7834 6:2.8652 7:3.4514 8:0.028626 9:0.79652 10:-0.41804 11:0.71136 
-0 0 0 1 0 0:0.047557 1:0.39974 2:78.0187 3:0.81433 4:16.9346 5:222.8664 6:2.8649 7:3.3678 8:0.031071 9:0.72019 10:-0.40518 11:0.69952 
-0 0 0 1 0 0:0.050169 1:0.60347 2:78.0287 3:0.76217 4:16.9345 5:222.769 6:2.8625 7:3.5188 8:0.027035 9:0.86053 10:-0.39966 11:0.68493 
-0 0 0 1 0 0:0.052696 1:0.50269 2:77.9141 3:0.7861 4:16.9185 5:222.8204 6:2.8512 7:3.4369 8:0.028771 9:0.79798 10:-0.42282 11:0.71365 
-0 0 0 1 0 0:0.050908 1:0.46823 2:78.3185 3:0.79257 4:16.9678 5:223.882 6:2.8622 7:3.4203 8:0.029364 9:0.77134 10:-0.41693 11:0.70883 
-0 0 0 1 0 0:0.054877 1:0.38503 2:78.07 3:0.82022 4:16.942 5:223.4213 6:2.8515 7:3.3418 8:0.031562 9:0.70905 10:-0.45786 11:0.75631 
-0 0 0 1 0 0:0.053162 1:0.42918 2:77.9494 3:0.80775 4:16.9288 5:222.6897 6:2.8614 7:3.3912 8:0.030446 9:0.7464 10:-0.44784 11:0.74721 
-0 0 0 1 0 0:0.054257 1:0.39852 2:78.0915 3:0.81683 4:16.9442 5:223.2367 6:2.8601 7:3.3633 8:0.031239 9:0.72146 10:-0.45593 11:0.75598 
-0 0 0 1 0 0:0.050915 1:0.5911 2:77.998 3:0.76559 4:16.9402 5:222.667 6:2.861 7:3.5104 8:0.02725 9:0.85377 10:-0.40671 11:0.6925 
-0 0 0 1 0 0:0.052512 1:0.46112 2:78.0435 3:0.79573 4:16.9389 5:222.8077 6:2.8674 7:3.4217 8:0.029572 9:0.76717 10:-0.43477 11:0.73058 
-0 0 0 1 0 0:0.052099 1:0.52107 2:78.132 3:0.78163 4:16.9489 5:223.0789 6:2.8661 7:3.466 8:0.028434 9:0.81012 10:-0.42043 11:0.71359 
-0 0 0 1 0 0:0.050352 1:0.47741 2:78.1075 3:0.79176 4:16.9441 5:223.3015 6:2.8573 7:3.424 8:0.029232 9:0.77985 10:-0.4169 11:0.70684 
-0 0 1 1 0 0:0.047557 1:0.56814 2:78.0125 3:0.76697 4:16.9339 5:221.9925 6:2.8891 7:3.5231 8:0.027518 9:0.83702 10:-0.40518 11:0.69952 
-0 0 0 1 0 0:0.051464 1:0.5104 2:77.8737 3:0.7834 4:16.9083 5:222.4023 6:2.8621 7:3.4547 8:0.02859 9:0.80266 10:-0.41812 11:0.7083 
-0 0 0 1 0 0:0.05185 1:0.46711 2:78.0674 3:0.7951 4:16.9427 5:222.9601 6:2.8644 7:3.4231 8:0.029484 9:0.77271 10:-0.43234 11:0.72825 
-0 0 0 1 0 0:0.049439 1:0.39853 2:77.9558 3:0.81384 4:16.9324 5:222.7987 6:2.8588 7:3.3592 8:0.031057 9:0.71788 10:-0.40751 11:0.6999 
-0 0 0 1 0 0:0.05217 1:0.42161 2:78.007 3:0.80851 4:16.9339 5:223.0945 6:2.8544 7:3.376 8:0.030554 9:0.73889 10:-0.43194 11:0.72753 
-0 0 0 1 0 0:0.047632 1:0.41785 2:77.9922 3:0.80861 4:16.9287 5:222.8258 6:2.8631 7:3.3806 8:0.030591 9:0.73479 10:-0.38962 11:0.67823 
-0 0 0 1 0 0:0.047557 1:0.39974 2:78.0187 3:0.81433 4:16.9346 5:222.8664 6:2.8649 7:3.3678 8:0.031071 9:0.72019 10:-0.40518 11:0.69952 
-0 0 0 1 0 0:0.049382 1:0.62802 2:77.9588 3:0.75332 4:16.9271 5:222.4136 6:2.8658 7:3.5365 8:0.026592 9:0.87172 10:-0.386 11:0.66872 
-0 0 0 1 0 0:0.049921 1:0.51306 2:78.0692 3:0.78145 4:16.9405 5:222.8696 6:2.8666 7:3.461 8:0.028499 9:0.80322 10:-0.41578 11:0.70671 
-0 0 0 1 0 0:0.053162 1:0.42918 2:77.9494 3:0.80775 4:16.9288 5:222.6897 6:2.8614 7:3.3912 8:0.030446 9:0.7464 10:-0.44784 11:0.74721 
-0 0 0 1 0 0:0.054257 1:0.39852 2:78.0915 3:0.81683 4:16.9442 5:223.2367 6:2.8601 7:3.3633 8:0.031239 9:0.72146 10:-0.45593 11:0.75598 
-0 1 1 1 0 0:0.047632 1:0.62335 2:77.9267 3:0.75374 4:16.9217 5:221.7518 6:2.886 7:3.5568 8:0.026645 9:0.86873 10:-0.38962 11:0.67823 
-0 0 0 1 0 0:0.05117 1:0.43606 2:78.1078 3:0.80324 4:16.9454 5:222.8716 6:2.8738 7:3.4075 8:0.030153 9:0.74898 10:-0.43879 11:0.7381 
-0 0 0 1 0 0:0.053477 1:0.42872 2:78.0545 3:0.80751 4:16.939 5:223.3309 6:2.8515 7:3.3797 8:0.030435 9:0.74574 10:-0.43283 11:0.72745 
-0 0 0 1 0 0:0.053704 1:0.43121 2:78.0511 3:0.80775 4:16.9438 5:223.3192 6:2.8504 7:3.3816 8:0.030431 9:0.74851 10:-0.4445 11:0.7406 
-0 0 0 1 0 0:0.050687 1:0.5297 2:78.112 3:0.77616 4:16.9399 5:223.1207 6:2.8633 7:3.4685 8:0.028157 9:0.81317 10:-0.40938 11:0.69849 
-0 0 0 1 0 0:0.05217 1:0.41318 2:78.0128 3:0.8097 4:16.9343 5:223.1207 6:2.8546 7:3.3679 8:0.030692 9:0.73061 10:-0.43194 11:0.72753 
-0 0 0 1 0 0:0.049521 1:0.49238 2:77.8362 3:0.78524 4:16.9129 5:221.8579 6:2.8758 7:3.4531 8:0.028846 9:0.78749 10:-0.40863 11:0.7013 
-0 0 0 0.8313027988995793 0 0:0.050013 1:0.39527 2:78.0573 3:0.81731 4:16.9375 5:223.3792 6:2.8517 7:3.3516 8:0.031289 9:0.71839 10:-0.4159 11:0.71035 
-0 0 0 1 0 0:0.049227 1:0.48899 2:77.9422 3:0.7864 4:16.9255 5:222.0295 6:2.8824 7:3.4578 8:0.028927 9:0.78531 10:-0.42084 11:0.71763 
-0 0 0 1 0 0:0.054473 1:0.41981 2:77.9216 3:0.80641 4:16.9212 5:222.9825 6:2.8489 7:3.3666 8:0.03046 9:0.73432 10:-0.43045 11:0.72398 
-0 0 0 1 0 0:0.051471 1:0.3758 2:78.0472 3:0.82244 4:16.936 5:223.1415 6:2.8597 7:3.3413 8:0.031779 9:0.70001 10:-0.44109 11:0.74054 
-0 0 0 1 0 0:0.050947 1:0.50644 2:78.1867 3:0.78236 4:16.9569 5:223.3749 6:2.8623 7:3.4508 8:0.028601 9:0.79791 10:-0.4145 11:0.70515 
-0 0 0 1 0 0:0.049439 1:0.53384 2:77.9688 3:0.77304 4:16.9334 5:222.1027 6:2.8803 7:3.4892 8:0.028035 9:0.81356 10:-0.40751 11:0.6999 
-0 0 0 1 0 0:0.050352 1:0.47741 2:78.1075 3:0.79176 4:16.9441 5:223.3015 6:2.8573 7:3.424 8:0.029232 9:0.77985 10:-0.4169 11:0.70684 
-0 0 0 1 0 0:0.053269 1:0.46025 2:78.0269 3:0.79569 4:16.9301 5:223.2034 6:2.8528 7:3.4052 8:0.029572 9:0.76647 10:-0.43577 11:0.72876 
-0 0 0 1 0 0:0.05117 1:0.36821 2:78.095 3:0.82396 4:16.9441 5:223.3021 6:2.8594 7:3.3325 8:0.03194 9:0.6917 10:-0.43879 11:0.7381 
-0 0 0 1 0 0:0.05014 1:0.49841 2:78.0474 3:0.78541 4:16.9392 5:222.3719 6:2.882 7:3.4649 8:0.028791 9:0.7934 10:-0.42353 11:0.72176 
-0 0 0 1 0 0:0.053269 1:0.46025 2:78.0269 3:0.79569 4:16.9301 5:223.2034 6:2.8528 7:3.4052 8:0.029572 9:0.76647 10:-0.43577 11:0.72876 
-0 0 0 1 0 0:0.050013 1:0.5124 2:78.0399 3:0.78398 4:16.9356 5:222.6674 6:2.8707 7:3.4641 8:0.028606 9:0.80459 10:-0.4159 11:0.71035 
-0 0 0 1 0 0:0.05014 1:0.37879 2:78.0087 3:0.82214 4:16.9348 5:223.0591 6:2.8573 7:3.3425 8:0.031735 9:0.70359 10:-0.42353 11:0.72176 
-0 0 0 1 0 0:0.049521 1:0.49238 2:77.8362 3:0.78524 4:16.9129 5:221.8579 6:2.8758 7:3.4531 8:0.028846 9:0.78749 10:-0.40863 11:0.7013 
-0 0 0 1 0 0:0.05217 1:0.42161 2:78.007 3:0.80851 4:16.9339 5:223.0945 6:2.8544 7:3.376 8:0.030554 9:0.73889 10:-0.43194 11:0.72753 
-0 0 0 1 0 0:0.053926 1:0.47559 2:77.9659 3:0.78856 4:16.9255 5:222.675 6:2.8633 7:3.4258 8:0.029137 9:0.77435 10:-0.4302 11:0.72509 
-0 0 0 1 0 0:0.049731 1:0.58402 2:78.0236 3:0.76646 4:16.9379 5:222.7496 6:2.8624 7:3.5058 8:0.027346 9:0.84901 10:-0.4028 11:0.68943 
-0 0 0 1 0 0:0.053477 1:0.42872 2:78.0545 3:0.80751 4:16.939 5:223.3309 6:2.8515 7:3.3797 8:0.030435 9:0.74574 10:-0.43283 11:0.72745 
-0 0 0 1 0 0:0.050687 1:0.5297 2:78.112 3:0.77616 4:16.9399 5:223.1207 6:2.8633 7:3.4685 8:0.028157 9:0.81317 10:-0.40938 11:0.69849 
-0 0 0 1 0 0:0.052099 1:0.52107 2:78.132 3:0.78163 4:16.9489 5:223.0789 6:2.8661 7:3.466 8:0.028434 9:0.81012 10:-0.42043 11:0.71359 
-0 0 0 1 0 0:0.050915 1:0.5911 2:77.998 3:0.76559 4:16.9402 5:222.667 6:2.861 7:3.5104 8:0.02725 9:0.85377 10:-0.40671 11:0.6925 
-0 0 0 1 0 0:0.049111 1:0.41984 2:78.0458 3:0.80651 4:16.9335 5:222.6849 6:2.8747 7:3.3931 8:0.030469 9:0.73436 10:-0.41798 11:0.71508 
-0 0 0 1 0 0:0.047632 1:0.41785 2:77.9922 3:0.80861 4:16.9287 5:222.8258 6:2.8631 7:3.3806 8:0.030591 9:0.73479 10:-0.38962 11:0.67823 
-0 0 0 1 0 0:0.054877 1:0.38503 2:78.07 3:0.82022 4:16.942 5:223.4213 6:2.8515 7:3.3418 8:0.031562 9:0.70905 10:-0.45786 11:0.75631 
-0.5136333315563757 1 1 1 0.334878231589362 0:0.047632 1:0.62335 2:77.9267 3:0.75374 4:16.9217 5:221.7518 6:2.886 7:3.5568 8:0.026645 9:0.86873 10:-0.38962 11:0.67823 
-0 0 0 1 0 0:0.050013 1:0.5124 2:78.0399 3:0.78398 4:16.9356 5:222.6674 6:2.8707 7:3.4641 8:0.028606 9:0.80459 10:-0.4159 11:0.71035 
-0 0 0 1 0 0:0.051471 1:0.42513 2:78.0603 3:0.80546 4:16.9372 5:222.7446 6:2.8736 7:3.3974 8:0.03036 9:0.73941 10:-0.44109 11:0.74054 
-0 0 0 1 0 0:0.049921 1:0.51306 2:78.0692 3:0.78145 4:16.9405 5:222.8696 6:2.8666 7:3.461 8:0.028499 9:0.80322 10:-0.41578 11:0.70671 
-0 0 0 1 0 0:0.05102 1:0.49593 2:78.0506 3:0.78779 4:16.9324 5:222.9707 6:2.8627 7:3.4436 8:0.028898 9:0.79346 10:-0.41955 11:0.71091 
-0 0 0 1 0 0:0.052512 1:0.46112 2:78.0435 3:0.79573 4:16.9389 5:222.8077 6:2.8674 7:3.4217 8:0.029572 9:0.76717 10:-0.43477 11:0.73058 
-0 0 0 1 0 0:0.053704 1:0.43121 2:78.0511 3:0.80775 4:16.9438 5:223.3192 6:2.8504 7:3.3816 8:0.030431 9:0.74851 10:-0.4445 11:0.7406 
-0 0 0 1 0 0:0.049111 1:0.41984 2:78.0458 3:0.80651 4:16.9335 5:222.6849 6:2.8747 7:3.3931 8:0.030469 9:0.73436 10:-0.41798 11:0.71508 
-0 0 0 1 0 0:0.048357 1:0.57475 2:77.9767 3:0.76605 4:16.9241 5:222.4139 6:2.8708 7:3.5094 8:0.027422 9:0.84165 10:-0.40003 11:0.68896 
-0 0 0 1 0 0:0.049111 1:0.47582 2:78.0541 3:0.78939 4:16.9344 5:222.3499 6:2.8855 7:3.4498 8:0.029163 9:0.77562 10:-0.41798 11:0.71508 
-0 0 0 1 0 0:0.050494 1:0.40824 2:77.9733 3:0.80987 4:16.9279 5:222.6142 6:2.8684 7:3.3767 8:0.030749 9:0.72475 10:-0.42415 11:0.72059 
-0 0 0 1 0 0:0.050514 1:0.37073 2:78.0753 3:0.8228 4:16.943 5:222.8557 6:2.8726 7:3.3481 8:0.031842 9:0.69351 10:-0.44698 11:0.7478 
-0 0 0 1 0 0:0.051986 1:0.37731 2:78.1441 3:0.82332 4:16.9497 5:222.9934 6:2.8759 7:3.3608 8:0.031827 9:0.70321 10:-0.46199 11:0.76417 
-0 0 0 1 0 0:0.050514 1:0.41546 2:78.0744 3:0.80978 4:16.9428 5:222.5846 6:2.8805 7:3.3976 8:0.030678 9:0.73334 10:-0.44698 11:0.7478 
-0 0 0 1 0 0:0.051986 1:0.37731 2:78.1441 3:0.82332 4:16.9497 5:222.9934 6:2.8759 7:3.3608 8:0.031827 9:0.70321 10:-0.46199 11:0.76417 
-0 0 0 1 0 0:0.052336 1:0.40885 2:77.9637 3:0.81041 4:16.9242 5:222.1297 6:2.885 7:3.3947 8:0.030772 9:0.72624 10:-0.46366 11:0.76498 
-0 0 0 1 0 0:0.050539 1:0.51779 2:78.0242 3:0.77756 4:16.9344 5:222.1324 6:2.8875 7:3.4841 8:0.028324 9:0.80374 10:-0.42191 11:0.72007 
-0 0 0 1 0 0:0.049474 1:0.45507 2:78.0695 3:0.79525 4:16.9396 5:222.2851 6:2.8897 7:3.4384 8:0.029608 9:0.76046 10:-0.43607 11:0.73648 
-0 0 0 1 0 0:0.053357 1:0.30359 2:77.9942 3:0.85122 4:16.9238 5:223.3384 6:2.8503 7:3.2703 8:0.034615 9:0.6344 10:-0.4713 11:0.77576 
-0 0 1 1 0 0:0.048088 1:0.53314 2:78.1374 3:0.77448 4:16.9524 5:222.1966 6:2.8971 7:3.5076 8:0.028083 9:0.81437 10:-0.42357 11:0.72237 
-0 0 0 1 0 0:0.050539 1:0.37659 2:78.0601 3:0.82252 4:16.9379 5:223.1899 6:2.8594 7:3.3422 8:0.031776 9:0.7013 10:-0.42191 11:0.72007 
-0 0 0 1 0 0:0.050494 1:0.40824 2:77.9733 3:0.80987 4:16.9279 5:222.6142 6:2.8684 7:3.3767 8:0.030749 9:0.72475 10:-0.42415 11:0.72059 
-0 0 0 1 0 0:0.051393 1:0.444 2:78.0272 3:0.80131 4:16.9359 5:222.1493 6:2.8897 7:3.4307 8:0.02998 9:0.75557 10:-0.45244 11:0.75512 
-0 0 1 1 0 0:0.048432 1:0.51132 2:78.077 3:0.78081 4:16.9401 5:221.9683 6:2.8999 7:3.494 8:0.028498 9:0.80098 10:-0.43065 11:0.73131 
-0 0 0 1 0 0:0.051986 1:0.35605 2:78.1284 3:0.82793 4:16.9479 5:222.9864 6:2.875 7:3.3366 8:0.032308 9:0.68007 10:-0.46199 11:0.76417 
-0 0 0 1 0 0:0.051986 1:0.35605 2:78.1284 3:0.82793 4:16.9479 5:222.9864 6:2.875 7:3.3366 8:0.032308 9:0.68007 10:-0.46199 11:0.76417 
-0 0 0 1 0 0:0.050016 1:0.50026 2:77.9787 3:0.78132 4:16.9296 5:221.9447 6:2.8893 7:3.473 8:0.028636 9:0.79087 10:-0.42523 11:0.72252 
-0 0 0 1 0 0:0.048088 1:0.35319 2:78.1726 3:0.83119 4:16.9564 5:223.5497 6:2.8597 7:3.3226 8:0.03257 9:0.68108 10:-0.42357 11:0.72237 
-0 0 0 1 0 0:0.054929 1:0.32357 2:78.077 3:0.84186 4:16.9417 5:223.4103 6:2.8551 7:3.29 8:0.033631 9:0.65214 10:-0.4749 11:0.77695 
-0 0 0 1 0 0:0.052729 1:0.41287 2:78.018 3:0.80831 4:16.9329 5:222.8579 6:2.8649 7:3.3769 8:0.030624 9:0.72836 10:-0.43826 11:0.73621 
-0 0 0 1 0 0:0.050016 1:0.36439 2:77.9963 3:0.82535 4:16.9314 5:222.9351 6:2.8611 7:3.3312 8:0.032064 9:0.68837 10:-0.42523 11:0.72252 
-0 0 0 1 0 0:0.053357 1:0.30359 2:77.9942 3:0.85122 4:16.9238 5:223.3384 6:2.8503 7:3.2703 8:0.034615 9:0.6344 10:-0.4713 11:0.77576 
-0 0 0 1 0 0:0.050361 1:0.34756 2:78.1109 3:0.83266 4:16.9422 5:223.1955 6:2.8666 7:3.3233 8:0.032721 9:0.67499 10:-0.44672 11:0.74852 
-0 0 0 1 0 0:0.054647 1:0.39944 2:77.9961 3:0.81724 4:16.9246 5:222.7079 6:2.8693 7:3.3743 8:0.031255 9:0.72311 10:-0.46323 11:0.76588 
-0 0 0 1 0 0:0.051393 1:0.444 2:78.0272 3:0.80131 4:16.9359 5:222.1493 6:2.8897 7:3.4307 8:0.02998 9:0.75557 10:-0.45244 11:0.75512 
-0 0 1 1 0 0:0.048179 1:0.5789 2:78.1766 3:0.76199 4:16.9516 5:222.3285 6:2.8965 7:3.5387 8:0.027291 9:0.84123 10:-0.41029 11:0.70553 
-0 0 0 1 0 0:0.055059 1:0.37744 2:78.0155 3:0.82196 4:16.9326 5:222.5432 6:2.8771 7:3.3608 8:0.031733 9:0.70162 10:-0.47612 11:0.77828 
-0 0 0 1 0 0:0.052983 1:0.47641 2:78.0375 3:0.78753 4:16.9368 5:222.4333 6:2.8797 7:3.443 8:0.029097 9:0.77388 10:-0.4379 11:0.73581 
-0 0 1 1 0 0:0.048432 1:0.51132 2:78.077 3:0.78081 4:16.9401 5:221.9683 6:2.8999 7:3.494 8:0.028498 9:0.80098 10:-0.43065 11:0.73131 
-0 0 0 1 0 0:0.050361 1:0.34756 2:78.1109 3:0.83266 4:16.9422 5:223.1955 6:2.8666 7:3.3233 8:0.032721 9:0.67499 10:-0.44672 11:0.74852 
-0 0 0 1 0 0:0.049474 1:0.45507 2:78.0695 3:0.79525 4:16.9396 5:222.2851 6:2.8897 7:3.4384 8:0.029608 9:0.76046 10:-0.43607 11:0.73648 
-0 0 0 1 0 0:0.052336 1:0.3199 2:77.954 3:0.84377 4:16.9233 5:223.1624 6:2.8503 7:3.2831 8:0.033823 9:0.64935 10:-0.46366 11:0.76498 
-0 0 0 1 0 0:0.054929 1:0.36068 2:78.0945 3:0.8298 4:16.9434 5:223.1386 6:2.8656 7:3.3369 8:0.032416 9:0.68952 10:-0.4749 11:0.77695 
-0 0 0 1 0 0:0.054647 1:0.39944 2:77.9961 3:0.81724 4:16.9246 5:222.7079 6:2.8693 7:3.3743 8:0.031255 9:0.72311 10:-0.46323 11:0.76588 
-0 0 1 1 0 0:0.048179 1:0.5789 2:78.1766 3:0.76199 4:16.9516 5:222.3285 6:2.8965 7:3.5387 8:0.027291 9:0.84123 10:-0.41029 11:0.70553 
-0 0 0 1 0 0:0.052336 1:0.3199 2:77.954 3:0.84377 4:16.9233 5:223.1624 6:2.8503 7:3.2831 8:0.033823 9:0.64935 10:-0.46366 11:0.76498 
-0 0 0 1 0 0:0.054929 1:0.32357 2:78.077 3:0.84186 4:16.9417 5:223.4103 6:2.8551 7:3.29 8:0.033631 9:0.65214 10:-0.4749 11:0.77695 
-0 0 0 1 0 0:0.049166 1:0.3731 2:78.0536 3:0.82196 4:16.9401 5:222.6631 6:2.8768 7:3.3545 8:0.031768 9:0.6956 10:-0.43644 11:0.7376 
-0 0 0 1 0 0:0.052336 1:0.40885 2:77.9637 3:0.81041 4:16.9242 5:222.1297 6:2.885 7:3.3947 8:0.030772 9:0.72624 10:-0.46366 11:0.76498 
-0 0 0 1 0 0:0.050016 1:0.36439 2:77.9963 3:0.82535 4:16.9314 5:222.9351 6:2.8611 7:3.3312 8:0.032064 9:0.68837 10:-0.42523 11:0.72252 
-0 0 0 1 0 0:0.048179 1:0.36182 2:78.1666 3:0.82727 4:16.9504 5:223.5421 6:2.86 7:3.3292 8:0.032219 9:0.68763 10:-0.41029 11:0.70553 
-0 0 0 1 0 0:0.048179 1:0.36182 2:78.1666 3:0.82727 4:16.9504 5:223.5421 6:2.86 7:3.3292 8:0.032219 9:0.68763 10:-0.41029 11:0.70553 
-0 0 0 1 0 0:0.056952 1:0.36092 2:78.0487 3:0.82849 4:16.9378 5:223.4435 6:2.8494 7:3.3185 8:0.032314 9:0.68815 10:-0.47027 11:0.77011 
-0 0 0.373334653323135 1 0 0:0.049166 1:0.45645 2:78.0505 3:0.7955 4:16.9397 5:222.0824 6:2.8941 7:3.4444 8:0.029602 9:0.76231 10:-0.43644 11:0.7376 
-0 0 0 1 0 0:0.050539 1:0.51779 2:78.0242 3:0.77756 4:16.9344 5:222.1324 6:2.8875 7:3.4841 8:0.028324 9:0.80374 10:-0.42191 11:0.72007 
-0 0 0 1 0 0:0.048432 1:0.35713 2:78.092 3:0.82953 4:16.9416 5:223.0977 6:2.8671 7:3.3333 8:0.032417 9:0.68431 10:-0.43065 11:0.73131 
-0 0 0 1 0 0:0.050514 1:0.41546 2:78.0744 3:0.80978 4:16.9428 5:222.5846 6:2.8805 7:3.3976 8:0.030678 9:0.73334 10:-0.44698 11:0.7478 
-0 0 0 1 0 0:0.054929 1:0.36068 2:78.0945 3:0.8298 4:16.9434 5:223.1386 6:2.8656 7:3.3369 8:0.032416 9:0.68952 10:-0.4749 11:0.77695 
-0 0 0 1 0 0:0.048432 1:0.35713 2:78.092 3:0.82953 4:16.9416 5:223.0977 6:2.8671 7:3.3333 8:0.032417 9:0.68431 10:-0.43065 11:0.73131 
-0 0 0 1 0 0:0.050361 1:0.44166 2:78.1122 3:0.79932 4:16.9419 5:222.2736 6:2.8962 7:3.4332 8:0.029915 9:0.75064 10:-0.44672 11:0.74852 
-0 0 0 1 0 0:0.050539 1:0.37659 2:78.0601 3:0.82252 4:16.9379 5:223.1899 6:2.8594 7:3.3422 8:0.031776 9:0.7013 10:-0.42191 11:0.72007 
-0 0 0 1 0 0:0.050016 1:0.50026 2:77.9787 3:0.78132 4:16.9296 5:221.9447 6:2.8893 7:3.473 8:0.028636 9:0.79087 10:-0.42523 11:0.72252 
-0 0 0 1 0 0:0.055059 1:0.37744 2:78.0155 3:0.82196 4:16.9326 5:222.5432 6:2.8771 7:3.3608 8:0.031733 9:0.70162 10:-0.47612 11:0.77828 
-0 0 0 1 0 0:0.052729 1:0.3967 2:78.0202 3:0.81482 4:16.9331 5:223.0437 6:2.8592 7:3.3582 8:0.031127 9:0.71697 10:-0.43826 11:0.73621 
-0 0 0 1 0 0:0.052729 1:0.3967 2:78.0202 3:0.81482 4:16.9331 5:223.0437 6:2.8592 7:3.3582 8:0.031127 9:0.71697 10:-0.43826 11:0.73621 
-0 0 0 1 0 0:0.048088 1:0.35319 2:78.1726 3:0.83119 4:16.9564 5:223.5497 6:2.8597 7:3.3226 8:0.03257 9:0.68108 10:-0.42357 11:0.72237 
-0 0 0 1 0 0:0.050494 1:0.46472 2:77.9488 3:0.79276 4:16.9249 5:222.1843 6:2.8788 7:3.4342 8:0.02941 9:0.76783 10:-0.42415 11:0.72059 
-0 0 0 1 0 0:0.051393 1:0.33867 2:77.9919 3:0.83633 4:16.9322 5:222.9674 6:2.8601 7:3.3094 8:0.033072 9:0.66722 10:-0.45244 11:0.75512 
-0 0 0 1 0 0:0.049166 1:0.3731 2:78.0536 3:0.82196 4:16.9401 5:222.6631 6:2.8768 7:3.3545 8:0.031768 9:0.6956 10:-0.43644 11:0.7376 
-0 0 0 1 0 0:0.049474 1:0.37343 2:78.0513 3:0.82266 4:16.9374 5:222.8721 6:2.8696 7:3.3487 8:0.031811 9:0.69712 10:-0.43607 11:0.73648 
-0 0 0 1 0 0:0.049474 1:0.37343 2:78.0513 3:0.82266 4:16.9374 5:222.8721 6:2.8696 7:3.3487 8:0.031811 9:0.69712 10:-0.43607 11:0.73648 
-0 0 0 1 0 0:0.052983 1:0.47641 2:78.0375 3:0.78753 4:16.9368 5:222.4333 6:2.8797 7:3.443 8:0.029097 9:0.77388 10:-0.4379 11:0.73581 
-0 0 0 1 0 0:0.053357 1:0.40781 2:78.0193 3:0.81403 4:16.9267 5:222.2149 6:2.8894 7:3.4015 8:0.030989 9:0.72929 10:-0.4713 11:0.77576 
-0 0 0.7189453407412741 1 0 0:0.049166 1:0.45645 2:78.0505 3:0.7955 4:16.9397 5:222.0824 6:2.8941 7:3.4444 8:0.029602 9:0.76231 10:-0.43644 11:0.7376 
-0 0 0 1 0 0:0.053357 1:0.40781 2:78.0193 3:0.81403 4:16.9267 5:222.2149 6:2.8894 7:3.4015 8:0.030989 9:0.72929 10:-0.4713 11:0.77576 
-0 0 0 1 0 0:0.052729 1:0.41287 2:78.018 3:0.80831 4:16.9329 5:222.8579 6:2.8649 7:3.3769 8:0.030624 9:0.72836 10:-0.43826 11:0.73621 
-0 0 0 1 0 0:0.050514 1:0.37073 2:78.0753 3:0.8228 4:16.943 5:222.8557 6:2.8726 7:3.3481 8:0.031842 9:0.69351 10:-0.44698 11:0.7478 
-0 0 0 1 0 0:0.051393 1:0.33867 2:77.9919 3:0.83633 4:16.9322 5:222.9674 6:2.8601 7:3.3094 8:0.033072 9:0.66722 10:-0.45244 11:0.75512 
-0 0 0 1 0 0:0.050494 1:0.46472 2:77.9488 3:0.79276 4:16.9249 5:222.1843 6:2.8788 7:3.4342 8:0.02941 9:0.76783 10:-0.42415 11:0.72059 
-0 0 0 1 0 0:0.056952 1:0.36092 2:78.0487 3:0.82849 4:16.9378 5:223.4435 6:2.8494 7:3.3185 8:0.032314 9:0.68815 10:-0.47027 11:0.77011 
-0 0 1 1 0 0:0.048088 1:0.53314 2:78.1374 3:0.77448 4:16.9524 5:222.1966 6:2.8971 7:3.5076 8:0.028083 9:0.81437 10:-0.42357 11:0.72237 
-0 0 0 1 0 0:0.050361 1:0.44166 2:78.1122 3:0.79932 4:16.9419 5:222.2736 6:2.8962 7:3.4332 8:0.029915 9:0.75064 10:-0.44672 11:0.74852 
-0 -0 1 0 0 0:0.038877 1:0.52958 2:78.0528 3:0.77399 4:16.9411 5:219.5678 6:2.9813 7:3.5919 8:0.028116 9:0.81048 10:-0.3817 11:0.6908 
-0 -0 1 0 0 0:0.038365 1:0.64949 2:77.9691 3:0.75033 4:16.9201 5:219.0893 6:2.9866 7:3.6808 8:0.026371 9:0.88353 10:-0.37557 11:0.68281 
-0 -0 0 1 0 0:0.038284 1:0.65881 2:78.1609 3:0.76199 4:16.9521 5:220.7371 6:2.948 7:3.6414 8:0.026625 9:0.89489 10:-0.34649 11:0.6358 
-1 -0 1 0 0 0:0.038777 1:0.60407 2:77.9537 3:0.76271 4:16.9263 5:219.0546 6:2.9859 7:3.6529 8:0.027065 9:0.86078 10:-0.38033 11:0.68964 
-0 -0 1 0 0 0:0.038361 1:0.63781 2:78.081 3:0.74988 4:16.9409 5:219.3295 6:2.99 7:3.6789 8:0.026446 9:0.87573 10:-0.37795 11:0.68655 
-0 -0 1 0 0 0:0.033736 1:0.73259 2:78.022 3:0.74257 4:16.9328 5:219.4535 6:2.9754 7:3.7157 8:0.025517 9:0.9291 10:-0.32048 11:0.59864 
-0 -0 1 0 0 0:0.038565 1:0.56873 2:78.0931 3:0.76665 4:16.9404 5:219.4172 6:2.9912 7:3.6334 8:0.027505 9:0.83716 10:-0.38721 11:0.69806 
-0 -0 1 0 0 0:0.040563 1:0.61675 2:77.978 3:0.75894 4:16.9293 5:219.3635 6:2.9773 7:3.6504 8:0.026848 9:0.86735 10:-0.3949 11:0.70474 
-0 -0 1 0 0 0:0.036048 1:0.75874 2:78.1161 3:0.73335 4:16.9429 5:219.3839 6:2.9883 7:3.75 8:0.025055 9:0.94089 10:-0.35501 11:0.65172 
-0 -0 1 0 0 0:0.037871 1:0.68257 2:77.8687 3:0.74793 4:16.9211 5:219.0583 6:2.9719 7:3.6845 8:0.025974 9:0.90446 10:-0.34995 11:0.64611 
-0 -0 1 0 0 0:0.037106 1:0.679 2:78.0862 3:0.74776 4:16.9411 5:219.6531 6:2.9776 7:3.6899 8:0.026053 9:0.90091 10:-0.36107 11:0.66043 
-0 -0 1 0 0 0:0.038001 1:0.6706 2:78.1721 3:0.75112 4:16.9522 5:219.5894 6:2.9901 7:3.6995 8:0.026198 9:0.89759 10:-0.35652 11:0.65882 
-0 -0 0 1 0 0:0.037323 1:0.7556 2:78.2459 3:0.74515 4:16.959 5:220.813 6:2.9525 7:3.6954 8:0.025508 9:0.93952 10:-0.33558 11:0.61992 
-0 -0 1 0 0 0:0.040119 1:0.59644 2:78.0183 3:0.76461 4:16.9326 5:219.4344 6:2.9805 7:3.6403 8:0.027175 9:0.8569 10:-0.39594 11:0.70724 
-0 -0 1 0 0 0:0.037636 1:0.67 2:78.0588 3:0.75386 4:16.9356 5:219.6886 6:2.9739 7:3.6774 8:0.026298 9:0.8979 10:-0.3574 11:0.65715 
-0 -0 1 0 0 0:0.036035 1:0.60058 2:78.0337 3:0.76147 4:16.9331 5:219.6172 6:2.9759 7:3.6358 8:0.027081 9:0.85696 10:-0.34213 11:0.63591 
-1 -0 1 0 0 0:0.036934 1:0.68911 2:77.995 3:0.74053 4:16.9316 5:218.9527 6:2.9913 7:3.7129 8:0.025811 9:0.90311 10:-0.36464 11:0.66754 
-0 -0 1 0 0 0:0.038735 1:0.45382 2:78.0465 3:0.80074 4:16.9397 5:220.2325 6:2.9596 7:3.5122 8:0.029865 9:0.76494 10:-0.37823 11:0.68313 
-1 -0 1 0 0 0:0.036165 1:0.75117 2:78.0883 3:0.73601 4:16.9431 5:219.1376 6:2.9934 7:3.7506 8:0.025196 9:0.93731 10:-0.34543 11:0.64226 
-0 -0 1 0 0 0:0.041281 1:0.53475 2:77.9773 3:0.78651 4:16.9299 5:220.129 6:2.9526 7:3.5676 8:0.028542 9:0.82347 10:-0.38514 11:0.6937 
-1 -0 1 0 0 0:0.034889 1:0.73756 2:77.7696 3:0.74354 4:16.905 5:218.5155 6:2.9786 7:3.7246 8:0.02547 9:0.93305 10:-0.3265 11:0.61082 
-0 -0 1 0 0 0:0.03473 1:0.80903 2:77.9908 3:0.72993 4:16.9372 5:219.2861 6:2.9733 7:3.7586 8:0.024604 9:0.96567 10:-0.32833 11:0.60983 
-0 -0 0 0 0.7381681939829724 0:0.033534 1:0.9003 2:78.0729 3:0.71892 4:16.9404 5:219.4693 6:2.9745 7:3.7957 8:0.023891 9:1.0011 10:-0.30377 11:0.57385 
-0 -0 1 0 0 0:0.037995 1:0.70064 2:78.0824 3:0.74747 4:16.9396 5:219.6197 6:2.9778 7:3.704 8:0.025838 9:0.9145 10:-0.36856 11:0.66948 
-0 -0 1 0 0 0:0.040975 1:0.58282 2:77.952 3:0.77413 4:16.9261 5:219.7935 6:2.9601 7:3.6075 8:0.027638 9:0.85203 10:-0.38643 11:0.69474 
-0 -0 1 0 0 0:0.038877 1:0.52958 2:78.0528 3:0.77399 4:16.9411 5:219.5678 6:2.9813 7:3.5919 8:0.028116 9:0.81048 10:-0.3817 11:0.6908 
-1 -0 1 0 0 0:0.036934 1:0.68911 2:77.995 3:0.74053 4:16.9316 5:218.9527 6:2.9913 7:3.7129 8:0.025811 9:0.90311 10:-0.36464 11:0.66754 
-0 -0 1 0 0 0:0.03473 1:0.80903 2:77.9908 3:0.72993 4:16.9372 5:219.2861 6:2.9733 7:3.7586 8:0.024604 9:0.96567 10:-0.32833 11:0.60983 
-0 -0 1 0 0 0:0.037464 1:0.65708 2:78.0703 3:0.75185 4:16.9397 5:219.7027 6:2.9747 7:3.6729 8:0.026311 9:0.89004 10:-0.35632 11:0.65487 
-0 -0 1 0 0 0:0.037631 1:0.69376 2:78.1458 3:0.7388 4:16.9504 5:219.5396 6:2.9877 7:3.711 8:0.025745 9:0.90483 10:-0.37114 11:0.67691 
-0 -0 1 0 0 0:0.040489 1:0.49585 2:77.9605 3:0.78788 4:16.9268 5:219.6085 6:2.9709 7:3.5559 8:0.028903 9:0.79346 10:-0.40293 11:0.71509 
-1 -0 1 0 0 0:0.034816 1:0.68227 2:78.0173 3:0.74497 4:16.933 5:218.8773 6:2.9972 7:3.7139 8:0.025942 9:0.90186 10:-0.33362 11:0.62663 
-0 -0 1 0 0 0:0.03753 1:0.55501 2:78.1311 3:0.77022 4:16.9467 5:219.6834 6:2.9862 7:3.6166 8:0.027751 9:0.82878 10:-0.36872 11:0.67486 
-0 -0 1 0 0 0:0.037363 1:0.58187 2:78.0438 3:0.76886 4:16.9333 5:219.8342 6:2.9702 7:3.6175 8:0.027445 9:0.84885 10:-0.35092 11:0.6468 
-0 -0 1 0 0 0:0.036165 1:0.57808 2:78.0777 3:0.76924 4:16.9421 5:219.4701 6:2.9864 7:3.6353 8:0.027477 9:0.84667 10:-0.34543 11:0.64226 
-0 -0 1 0 0 0:0.038799 1:0.49473 2:78.1414 3:0.78788 4:16.9463 5:219.9473 6:2.9805 7:3.5667 8:0.028923 9:0.79217 10:-0.38423 11:0.6958 
-0 -0 1 0 0 0:0.038877 1:0.57556 2:78.0447 3:0.76605 4:16.9399 5:219.4961 6:2.9813 7:3.6271 8:0.027421 9:0.84207 10:-0.3817 11:0.6908 
-0 -0 1 0 0 0:0.035708 1:0.70444 2:78.0179 3:0.74817 4:16.9321 5:219.1488 6:2.9869 7:3.7133 8:0.025853 9:0.91629 10:-0.34204 11:0.63704 
-0 -0 1 0 0 0:0.038361 1:0.63781 2:78.081 3:0.74988 4:16.9409 5:219.3295 6:2.99 7:3.6789 8:0.026446 9:0.87573 10:-0.37795 11:0.68655 
-0 -0 1 0 0 0:0.040068 1:0.62425 2:78.043 3:0.75545 4:16.9372 5:219.4847 6:2.9803 7:3.6556 8:0.026726 9:0.86939 10:-0.38378 11:0.69493 
-0 -0 0 1 0 0:0.038489 1:0.60188 2:78.1151 3:0.77296 4:16.9409 5:220.7426 6:2.9456 7:3.6049 8:0.027466 9:0.86354 10:-0.35416 11:0.64555 
-0 -0 1 0 0 0:0.041397 1:0.59269 2:78.1154 3:0.7633 4:16.9431 5:219.7875 6:2.9797 7:3.6346 8:0.027199 9:0.85267 10:-0.3986 11:0.71263 
-0 -0 1 0 0 0:0.038622 1:0.47642 2:78.0218 3:0.79466 4:16.9325 5:220.1526 6:2.9597 7:3.5302 8:0.029387 9:0.78088 10:-0.37467 11:0.67734 
-0 -0 1 0 0 0:0.037871 1:0.61098 2:77.86 3:0.76134 4:16.9206 5:219.1724 6:2.9693 7:3.6365 8:0.026962 9:0.86492 10:-0.34995 11:0.64611 
-1 -0 1 0 0 0:0.034889 1:0.74746 2:77.751 3:0.73995 4:16.9029 5:218.3923 6:2.9804 7:3.732 8:0.025314 9:0.93689 10:-0.3265 11:0.61082 
-0 -0 1 0 0 0:0.037871 1:0.61098 2:77.86 3:0.76134 4:16.9206 5:219.1724 6:2.9693 7:3.6365 8:0.026962 9:0.86492 10:-0.34995 11:0.64611 
-0 -0 1 0 0 0:0.036035 1:0.77228 2:78.0471 3:0.731 4:16.934 5:219.3374 6:2.9815 7:3.744 8:0.024978 9:0.94525 10:-0.34213 11:0.63591 
-0 -1 0 1 0 0:0.037323 1:0.69368 2:78.2427 3:0.754 4:16.9591 5:220.9286 6:2.9501 7:3.662 8:0.026149 9:0.91101 10:-0.33558 11:0.61992 
-0 -0 1 0 0 0:0.036303 1:0.75141 2:78.1081 3:0.73586 4:16.9402 5:219.5502 6:2.982 7:3.737 8:0.025203 9:0.93711 10:-0.35273 11:0.64882 
-0 -0 1 0 0 0:0.040563 1:0.42145 2:77.9736 3:0.80878 4:16.9292 5:220.1606 6:2.9552 7:3.4797 8:0.030568 9:0.7391 10:-0.3949 11:0.70474 
-1 -0 1 0 0 0:0.036751 1:0.70357 2:77.999 3:0.74218 4:16.9321 5:218.9274 6:2.9922 7:3.7201 8:0.025752 9:0.91213 10:-0.36093 11:0.66349 
-0 -0 1 0 0 0:0.040975 1:0.51473 2:77.965 3:0.7919 4:16.9273 5:220.1444 6:2.9516 7:3.5513 8:0.028971 9:0.81029 10:-0.38643 11:0.69474 
-0 -0 1 0 0 0:0.036029 1:0.65821 2:78.0663 3:0.75691 4:16.9355 5:219.4048 6:2.9856 7:3.6842 8:0.026464 9:0.89263 10:-0.34578 11:0.64234 
-1 -0 1 0 0 0:0.034816 1:0.68227 2:78.0173 3:0.74497 4:16.933 5:218.8773 6:2.9972 7:3.7139 8:0.025942 9:0.90186 10:-0.33362 11:0.62663 
-0 -0 0 0.6018552881753032 0 0:0.040234 1:0.46943 2:78.0879 3:0.79721 4:16.9422 5:220.5745 6:2.9522 7:3.5166 8:0.029562 9:0.77662 10:-0.3845 11:0.69194 
-0 -0 1 0 0 0:0.037823 1:0.69981 2:78.1047 3:0.75122 4:16.9423 5:219.4225 6:2.9875 7:3.7104 8:0.026043 9:0.91275 10:-0.35421 11:0.65588 
-0 -0 1 0 0 0:0.033736 1:0.73259 2:78.022 3:0.74257 4:16.9328 5:219.4535 6:2.9754 7:3.7157 8:0.025517 9:0.9291 10:-0.32048 11:0.59864 
-0 -0 1 0 0 0:0.035708 1:0.70444 2:78.0179 3:0.74817 4:16.9321 5:219.1488 6:2.9869 7:3.7133 8:0.025853 9:0.91629 10:-0.34204 11:0.63704 
-0 -0 1 0 0 0:0.038615 1:0.52772 2:78.0032 3:0.78175 4:16.9316 5:219.9149 6:2.9638 7:3.5741 8:0.028379 9:0.81572 10:-0.37283 11:0.67534 
-0 -0 1 0 0 0:0.037823 1:0.59002 2:78.1111 3:0.76671 4:16.9426 5:219.5712 6:2.987 7:3.6425 8:0.027321 9:0.85293 10:-0.35421 11:0.65588 
-0 -0 1 0 0 0:0.036009 1:0.66513 2:78.0201 3:0.7512 4:16.9359 5:219.3053 6:2.9822 7:3.6892 8:0.026203 9:0.89537 10:-0.35341 11:0.64888 
-1 -0 1 0 0 0:0.038033 1:0.64003 2:78.0025 3:0.75517 4:16.9306 5:219.1176 6:2.9885 7:3.6776 8:0.026565 9:0.88026 10:-0.37282 11:0.67831 
-0 -0 1 0 0 0:0.037636 1:0.57934 2:78.0506 3:0.76669 4:16.9346 5:219.7464 6:2.9742 7:3.62 8:0.027417 9:0.84513 10:-0.3574 11:0.65715 
-0 -0 1 0 0 0:0.036009 1:0.66513 2:78.0201 3:0.7512 4:16.9359 5:219.3053 6:2.9822 7:3.6892 8:0.026203 9:0.89537 10:-0.35341 11:0.64888 
-0 -0 1 0 1 0:0.034174 1:0.85899 2:77.9935 3:0.72391 4:16.9343 5:218.9944 6:2.9829 7:3.79 8:0.024249 9:0.98439 10:-0.31304 11:0.59284 
-0 -0 1 0 0 0:0.040489 1:0.52256 2:77.9606 3:0.78282 4:16.9268 5:219.5437 6:2.9722 7:3.579 8:0.028456 9:0.8126 10:-0.40293 11:0.71509 
-0 -0 0 1 0 0:0.039318 1:0.61177 2:78.0613 3:0.77398 4:16.9366 5:220.6783 6:2.9408 7:3.6042 8:0.027456 9:0.86967 10:-0.36119 11:0.65636 
-0 -0 1 0 0 0:0.040068 1:0.49876 2:78.0464 3:0.7839 4:16.9379 5:219.8534 6:2.972 7:3.557 8:0.028743 9:0.79199 10:-0.38378 11:0.69493 
-0 -0 1 0 0 0:0.035708 1:0.66648 2:78.0493 3:0.75303 4:16.9356 5:219.2724 6:2.9876 7:3.6923 8:0.026278 9:0.89617 10:-0.34204 11:0.63704 
-1 -0 1 0 0 0:0.037575 1:0.66257 2:78.0052 3:0.74491 4:16.9346 5:218.9217 6:2.9942 7:3.6992 8:0.026153 9:0.88835 10:-0.37529 11:0.68277 
-0 -0 1 0 0 0:0.036934 1:0.51794 2:77.9966 3:0.7776 4:16.9316 5:219.3313 6:2.9842 7:3.5856 8:0.028352 9:0.80328 10:-0.36464 11:0.66754 
-1 -0 1 0 0 0:0.036165 1:0.75117 2:78.0883 3:0.73601 4:16.9431 5:219.1376 6:2.9934 7:3.7506 8:0.025196 9:0.93731 10:-0.34543 11:0.64226 
-0 -0 1 0 0 0:0.03753 1:0.55501 2:78.1311 3:0.77022 4:16.9467 5:219.6834 6:2.9862 7:3.6166 8:0.027751 9:0.82878 10:-0.36872 11:0.67486 
-0 -0 1 0 0 0:0.041071 1:0.54328 2:77.9619 3:0.77309 4:16.9269 5:219.3598 6:2.9783 7:3.5985 8:0.027946 9:0.82165 10:-0.39544 11:0.70931 
-1 -0 1 0 0 0:0.036751 1:0.70357 2:77.999 3:0.74218 4:16.9321 5:218.9274 6:2.9922 7:3.7201 8:0.025752 9:0.91213 10:-0.36093 11:0.66349 
-0 -0 1 0 0 0:0.037636 1:0.67 2:78.0588 3:0.75386 4:16.9356 5:219.6886 6:2.9739 7:3.6774 8:0.026298 9:0.8979 10:-0.3574 11:0.65715 
-0 -0 1 0 0 0:0.040975 1:0.58282 2:77.952 3:0.77413 4:16.9261 5:219.7935 6:2.9601 7:3.6075 8:0.027638 9:0.85203 10:-0.38643 11:0.69474 
-1 -0 1 0 0 0:0.038033 1:0.64003 2:78.0025 3:0.75517 4:16.9306 5:219.1176 6:2.9885 7:3.6776 8:0.026565 9:0.88026 10:-0.37282 11:0.67831 
-0 -0 1 0 0 0:0.038777 1:0.51546 2:77.9709 3:0.78131 4:16.9283 5:219.3206 6:2.9816 7:3.5829 8:0.028484 9:0.80474 10:-0.38033 11:0.68964 
-0 -0 1 0 0 0:0.039695 1:0.59954 2:78.0541 3:0.76826 4:16.9399 5:220.0027 6:2.9636 7:3.622 8:0.027295 9:0.86036 10:-0.37666 11:0.68292 
-0 -0 1 0 0 0:0.038615 1:0.52772 2:78.0032 3:0.78175 4:16.9316 5:219.9149 6:2.9638 7:3.5741 8:0.028379 9:0.81572 10:-0.37283 11:0.67534 
-0 -0 1 0 0 0:0.037575 1:0.50785 2:78.0196 3:0.78181 4:16.9363 5:219.3915 6:2.9847 7:3.5797 8:0.028584 9:0.79826 10:-0.37529 11:0.68277 
-0 -0 1 0 0 0:0.039053 1:0.61321 2:77.7387 3:0.7721 4:16.8994 5:219.4918 6:2.9449 7:3.6078 8:0.02739 9:0.86902 10:-0.36114 11:0.65704 
-0 -0 1 0 0 0:0.038385 1:0.61473 2:77.7683 3:0.76249 4:16.9054 5:218.6719 6:2.9772 7:3.6493 8:0.026959 9:0.86827 10:-0.36578 11:0.66723 
-1 -0 1 0 0 0:0.034889 1:0.73756 2:77.7696 3:0.74354 4:16.905 5:218.5155 6:2.9786 7:3.7246 8:0.02547 9:0.93305 10:-0.3265 11:0.61082 
-0 -0 1 0 0 0:0.038565 1:0.56873 2:78.0931 3:0.76665 4:16.9404 5:219.4172 6:2.9912 7:3.6334 8:0.027505 9:0.83716 10:-0.38721 11:0.69806 
-0 -0 1 0 0 0:0.036035 1:0.77228 2:78.0471 3:0.731 4:16.934 5:219.3374 6:2.9815 7:3.744 8:0.024978 9:0.94525 10:-0.34213 11:0.63591 
-0 -0 1 0 0 0:0.037106 1:0.679 2:78.0862 3:0.74776 4:16.9411 5:219.6531 6:2.9776 7:3.6899 8:0.026053 9:0.90091 10:-0.36107 11:0.66043 
-0 -0 0 1 0 0:0.039318 1:0.61177 2:78.0613 3:0.77398 4:16.9366 5:220.6783 6:2.9408 7:3.6042 8:0.027456 9:0.86967 10:-0.36119 11:0.65636 
-1 -0 1 0 0 0:0.03628 1:0.60725 2:78.0234 3:0.76191 4:16.9329 5:219.1475 6:2.9911 7:3.6584 8:0.027032 9:0.86204 10:-0.34481 11:0.64305 
-1 -0 1 0 0 0:0.036357 1:0.71914 2:78.1441 3:0.74066 4:16.9493 5:219.3385 6:2.994 7:3.7332 8:0.025534 9:0.92183 10:-0.34474 11:0.64213 
-0 -0 1 0 0 0:0.037636 1:0.57934 2:78.0506 3:0.76669 4:16.9346 5:219.7464 6:2.9742 7:3.62 8:0.027417 9:0.84513 10:-0.3574 11:0.65715 
-0 -0 1 0 0 0:0.03753 1:0.62905 2:78.1329 3:0.75279 4:16.9466 5:219.4829 6:2.991 7:3.6744 8:0.026595 9:0.87158 10:-0.36872 11:0.67486 
-0 -0 1 0 0 0:0.040068 1:0.49876 2:78.0464 3:0.7839 4:16.9379 5:219.8534 6:2.972 7:3.557 8:0.028743 9:0.79199 10:-0.38378 11:0.69493 
-1 -0 1 0 0 0:0.038568 1:0.64172 2:78.0986 3:0.75043 4:16.9404 5:219.2847 6:2.9941 7:3.686 8:0.026416 9:0.8789 10:-0.3873 11:0.69785 
-0 -0 1 0 0 0:0.036029 1:0.69626 2:78.0862 3:0.74888 4:16.9376 5:219.3486 6:2.9887 7:3.7099 8:0.025963 9:0.91118 10:-0.34578 11:0.64234 
-0 -0 1 0 0 0:0.039106 1:0.47162 2:78.0695 3:0.79208 4:16.9384 5:220.0193 6:2.9702 7:3.5342 8:0.029309 9:0.77425 10:-0.38568 11:0.69439 
-1 -0 1 0 0 0:0.03628 1:0.60725 2:78.0234 3:0.76191 4:16.9329 5:219.1475 6:2.9911 7:3.6584 8:0.027032 9:0.86204 10:-0.34481 11:0.64305 
-1 -0 1 0 0 0:0.038568 1:0.64172 2:78.0986 3:0.75043 4:16.9404 5:219.2847 6:2.9941 7:3.686 8:0.026416 9:0.8789 10:-0.3873 11:0.69785 
-0 -0 1 0 0 0:0.038615 1:0.64194 2:78.0021 3:0.75894 4:16.9311 5:219.6298 6:2.9699 7:3.6582 8:0.026644 9:0.88371 10:-0.37283 11:0.67534 
-0 -0 1 0 0 0:0.038799 1:0.60607 2:78.155 3:0.76023 4:16.9476 5:219.6029 6:2.9905 7:3.6592 8:0.026973 9:0.86069 10:-0.38423 11:0.6958 
-1 -0 1 0 0 0:0.034816 1:0.75914 2:78.0181 3:0.73366 4:16.9334 5:218.7977 6:2.9973 7:3.7592 8:0.025098 9:0.94024 10:-0.33362 11:0.62663 
-0 -0 1 0 0 0:0.038385 1:0.6009 2:77.7719 3:0.76928 4:16.9059 5:218.8163 6:2.9729 7:3.6353 8:0.027334 9:0.86125 10:-0.36578 11:0.66723 
-0 -0 1 0 0 0:0.038361 1:0.48858 2:78.1057 3:0.7875 4:16.9441 5:219.9046 6:2.9776 7:3.5571 8:0.028964 9:0.78616 10:-0.37795 11:0.68655 
-0 -0 1 0 0 0:0.038365 1:0.64949 2:77.9691 3:0.75033 4:16.9201 5:219.0893 6:2.9866 7:3.6808 8:0.026371 9:0.88353 10:-0.37557 11:0.68281 
-0 -0 1 0 0 0:0.034174 1:0.74183 2:77.9993 3:0.73927 4:16.935 5:219.1163 6:2.9834 7:3.7291 8:0.02542 9:0.93098 10:-0.31304 11:0.59284 
-0 -0 1 0 0 0:0.034737 1:0.80278 2:77.988 3:0.73776 4:16.93 5:219.5656 6:2.9646 7:3.74 8:0.024869 9:0.96421 10:-0.31794 11:0.5933 
-0 -0 1 0 0 0:0.036303 1:0.75141 2:78.1081 3:0.73586 4:16.9402 5:219.5502 6:2.982 7:3.737 8:0.025203 9:0.93711 10:-0.35273 11:0.64882 
-0 -0 1 0 0 0:0.035826 1:0.83087 2:78.07 3:0.71934 4:16.9396 5:219.3278 6:2.9818 7:3.7772 8:0.024293 9:0.97119 10:-0.33263 11:0.62119 
-0 -0 0 1 0 0:0.039318 1:0.64064 2:78.0584 3:0.76573 4:16.9364 5:220.518 6:2.9451 7:3.6271 8:0.026897 9:0.88529 10:-0.36119 11:0.65636 
-0 -0 1 0 0 0:0.041071 1:0.4931 2:77.9416 3:0.78796 4:16.925 5:219.544 6:2.971 7:3.5534 8:0.028948 9:0.79052 10:-0.39544 11:0.70931 
-0 -0 1 0 0 0:0.040032 1:0.59504 2:77.9512 3:0.7746 4:16.9266 5:220.0272 6:2.951 7:3.6062 8:0.027573 9:0.86015 10:-0.37322 11:0.67452 
-0 -0 1 0 0 0:0.038568 1:0.44307 2:78.0894 3:0.80057 4:16.9393 5:219.9484 6:2.9764 7:3.5182 8:0.029963 9:0.75346 10:-0.3873 11:0.69785 
-0 -0 1 0 0 0:0.033736 1:0.82091 2:78.0351 3:0.7267 4:16.9345 5:219.3682 6:2.9768 7:3.7671 8:0.024453 9:0.97027 10:-0.32048 11:0.59864 
-0 -0 1 0 0 0:0.041281 1:0.56808 2:78.0082 3:0.77872 4:16.9333 5:220.0831 6:2.9568 7:3.595 8:0.027936 9:0.84403 10:-0.38514 11:0.6937 
-0 -0 1 0 0 0:0.037363 1:0.58187 2:78.0438 3:0.76886 4:16.9333 5:219.8342 6:2.9702 7:3.6175 8:0.027445 9:0.84885 10:-0.35092 11:0.6468 
-0.3997395964829464 -0 1 0 0 0:0.038385 1:0.61473 2:77.7683 3:0.76249 4:16.9054 5:218.6719 6:2.9772 7:3.6493 8:0.026959 9:0.86827 10:-0.36578 11:0.66723 
-1 -0 1 0 0 0:0.034816 1:0.75914 2:78.0181 3:0.73366 4:16.9334 5:218.7977 6:2.9973 7:3.7592 8:0.025098 9:0.94024 10:-0.33362 11:0.62663 
-0 -0 1 0 0 0:0.041397 1:0.59269 2:78.1154 3:0.7633 4:16.9431 5:219.7875 6:2.9797 7:3.6346 8:0.027199 9:0.85267 10:-0.3986 11:0.71263 
-0 -0 1 0 0 0:0.037464 1:0.65708 2:78.0703 3:0.75185 4:16.9397 5:219.7027 6:2.9747 7:3.6729 8:0.026311 9:0.89004 10:-0.35632 11:0.65487 
-0 -0 1 0 0 0:0.037823 1:0.59002 2:78.1111 3:0.76671 4:16.9426 5:219.5712 6:2.987 7:3.6425 8:0.027321 9:0.85293 10:-0.35421 11:0.65588 
-0 -0 0 0 0.1381164924361009 0:0.033534 1:0.9003 2:78.0729 3:0.71892 4:16.9404 5:219.4693 6:2.9745 7:3.7957 8:0.023891 9:1.0011 10:-0.30377 11:0.57385 
-0 -0 1 0 0 0:0.037363 1:0.7164 2:78.0396 3:0.74038 4:16.9326 5:219.4546 6:2.9785 7:3.7113 8:0.025565 9:0.91986 10:-0.35092 11:0.6468 
-0 -0 1 0 0 0:0.038877 1:0.57556 2:78.0447 3:0.76605 4:16.9399 5:219.4961 6:2.9813 7:3.6271 8:0.027421 9:0.84207 10:-0.3817 11:0.6908 
-0 -0 1 0 0 0:0.038568 1:0.44307 2:78.0894 3:0.80057 4:16.9393 5:219.9484 6:2.9764 7:3.5182 8:0.029963 9:0.75346 10:-0.3873 11:0.69785 
-0 -0 1 0 0 0:0.041071 1:0.4931 2:77.9416 3:0.78796 4:16.925 5:219.544 6:2.971 7:3.5534 8:0.028948 9:0.79052 10:-0.39544 11:0.70931 
-0 -0 1 0 0 0:0.034575 1:0.73307 2:78.0919 3:0.7414 4:16.9415 5:219.317 6:2.9885 7:3.7309 8:0.025499 9:0.92856 10:-0.33133 11:0.62073 
-0 -0 1 0 0 0:0.038799 1:0.60607 2:78.155 3:0.76023 4:16.9476 5:219.6029 6:2.9905 7:3.6592 8:0.026973 9:0.86069 10:-0.38423 11:0.6958 
-0 -0 1 0 0 0:0.036048 1:0.75874 2:78.1161 3:0.73335 4:16.9429 5:219.3839 6:2.9883 7:3.75 8:0.025055 9:0.94089 10:-0.35501 11:0.65172 
-0 -0 1 0 0 0:0.034575 1:0.73307 2:78.0919 3:0.7414 4:16.9415 5:219.317 6:2.9885 7:3.7309 8:0.025499 9:0.92856 10:-0.33133 11:0.62073 
-0 -0 1 0 0 0:0.040489 1:0.49585 2:77.9605 3:0.78788 4:16.9268 5:219.6085 6:2.9709 7:3.5559 8:0.028903 9:0.79346 10:-0.40293 11:0.71509 
-0 -0 1 0 0 0:0.038033 1:0.53448 2:78.0094 3:0.77934 4:16.9313 5:219.4535 6:2.9811 7:3.597 8:0.028237 9:0.81914 10:-0.37282 11:0.67831 
-0 -0 1 0 1 0:0.034174 1:0.85899 2:77.9935 3:0.72391 4:16.9343 5:218.9944 6:2.9829 7:3.79 8:0.024249 9:0.98439 10:-0.31304 11:0.59284 
-0 -0 1 0 0 0:0.036357 1:0.61556 2:78.1626 3:0.76256 4:16.9514 5:219.6371 6:2.9892 7:3.6628 8:0.026977 9:0.86817 10:-0.34474 11:0.64213 
-0 -0 1 0 0 0:0.039695 1:0.59954 2:78.0541 3:0.76826 4:16.9399 5:220.0027 6:2.9636 7:3.622 8:0.027295 9:0.86036 10:-0.37666 11:0.68292 
-0 -0 1 0 0 0:0.038615 1:0.64194 2:78.0021 3:0.75894 4:16.9311 5:219.6298 6:2.9699 7:3.6582 8:0.026644 9:0.88371 10:-0.37283 11:0.67534 
-0 -0 1 0 0 0:0.037363 1:0.7164 2:78.0396 3:0.74038 4:16.9326 5:219.4546 6:2.9785 7:3.7113 8:0.025565 9:0.91986 10:-0.35092 11:0.6468 
-1 -0 1 0 0 0:0.03628 1:0.7672 2:78.0409 3:0.73395 4:16.9345 5:218.9179 6:2.9957 7:3.7596 8:0.025115 9:0.94279 10:-0.34481 11:0.64305 
-0 -0 0 1 0 0:0.039101 1:0.59111 2:78.035 3:0.77479 4:16.9374 5:220.63 6:2.9393 7:3.5915 8:0.027617 9:0.85724 10:-0.3538 11:0.64391 
-0 -0 1 0 0 0:0.039053 1:0.66635 2:77.7637 3:0.7577 4:16.9024 5:219.3222 6:2.9519 7:3.6496 8:0.026436 9:0.89761 10:-0.36114 11:0.65704 
-0 -0 1 0 0 0:0.040119 1:0.59644 2:78.0183 3:0.76461 4:16.9326 5:219.4344 6:2.9805 7:3.6403 8:0.027175 9:0.8569 10:-0.39594 11:0.70724 
-0 -0 1 0 0 0:0.040563 1:0.61675 2:77.978 3:0.75894 4:16.9293 5:219.3635 6:2.9773 7:3.6504 8:0.026848 9:0.86735 10:-0.3949 11:0.70474 
-0 -0 1 0 0 0:0.038361 1:0.48858 2:78.1057 3:0.7875 4:16.9441 5:219.9046 6:2.9776 7:3.5571 8:0.028964 9:0.78616 10:-0.37795 11:0.68655 
-0 -0 1 0 0 0:0.038735 1:0.68008 2:78.047 3:0.74887 4:16.9398 5:219.4608 6:2.9791 7:3.6922 8:0.026066 9:0.90225 10:-0.37823 11:0.68313 
-0 -0 1 0 0 0:0.036029 1:0.69626 2:78.0862 3:0.74888 4:16.9376 5:219.3486 6:2.9887 7:3.7099 8:0.025963 9:0.91118 10:-0.34578 11:0.64234 
-0 -0 1 0 0 0:0.03786 1:0.48945 2:78.0902 3:0.78636 4:16.9492 5:219.9263 6:2.9735 7:3.5532 8:0.02892 9:0.7857 10:-0.37066 11:0.67624 
-1 -0 1 0 0.1743304536392478 0:0.034889 1:0.74746 2:77.751 3:0.73995 4:16.9029 5:218.3923 6:2.9804 7:3.732 8:0.025314 9:0.93689 10:-0.3265 11:0.61082 
-1 -0 1 0 0 0:0.03628 1:0.7672 2:78.0409 3:0.73395 4:16.9345 5:218.9179 6:2.9957 7:3.7596 8:0.025115 9:0.94279 10:-0.34481 11:0.64305 
-0 -0 1 0 0 0:0.040489 1:0.52256 2:77.9606 3:0.78282 4:16.9268 5:219.5437 6:2.9722 7:3.579 8:0.028456 9:0.8126 10:-0.40293 11:0.71509 
-0 -0 1 0 0 0:0.040032 1:0.58972 2:77.9549 3:0.77877 4:16.9273 5:220.1512 6:2.9472 7:3.5972 8:0.027829 9:0.85691 10:-0.37322 11:0.67452 
-0 -0 1 0 0 0:0.037631 1:0.69376 2:78.1458 3:0.7388 4:16.9504 5:219.5396 6:2.9877 7:3.711 8:0.025745 9:0.90483 10:-0.37114 11:0.67691 
-0 -0 1 0 0 0:0.036934 1:0.51794 2:77.9966 3:0.7776 4:16.9316 5:219.3313 6:2.9842 7:3.5856 8:0.028352 9:0.80328 10:-0.36464 11:0.66754 
-0 -0 1 0 0 0:0.040119 1:0.45039 2:78.0245 3:0.79968 4:16.9332 5:219.9878 6:2.9667 7:3.5148 8:0.02984 9:0.76063 10:-0.39594 11:0.70724 
-0 -0 1 0 0 0:0.041071 1:0.54328 2:77.9619 3:0.77309 4:16.9269 5:219.3598 6:2.9783 7:3.5985 8:0.027946 9:0.82165 10:-0.39544 11:0.70931 
-0 -0 0 1 0 0:0.038489 1:0.60188 2:78.1151 3:0.77296 4:16.9409 5:220.7426 6:2.9456 7:3.6049 8:0.027466 9:0.86354 10:-0.35416 11:0.64555 
-0 -0 1 0 0 0:0.036751 1:0.56549 2:78.0028 3:0.76902 4:16.9325 5:219.2372 6:2.9865 7:3.6245 8:0.02761 9:0.83632 10:-0.36093 11:0.66349 
-0 -0 1 0 0 0:0.038622 1:0.6808 2:78.0142 3:0.7515 4:16.9315 5:219.5529 6:2.9729 7:3.6854 8:0.026126 9:0.90399 10:-0.37467 11:0.67734 
-0 -0 1 0 0 0:0.038735 1:0.68008 2:78.047 3:0.74887 4:16.9398 5:219.4608 6:2.9791 7:3.6922 8:0.026066 9:0.90225 10:-0.37823 11:0.68313 
-0 -0 1 0 0 0:0.035826 1:0.83087 2:78.07 3:0.71934 4:16.9396 5:219.3278 6:2.9818 7:3.7772 8:0.024293 9:0.97119 10:-0.33263 11:0.62119 
-0 -0 1 0 0 0:0.038385 1:0.6009 2:77.7719 3:0.76928 4:16.9059 5:218.8163 6:2.9729 7:3.6353 8:0.027334 9:0.86125 10:-0.36578 11:0.66723 
-1 -0 1 0 0 0:0.034575 1:0.73909 2:78.0895 3:0.73752 4:16.9415 5:219.24 6:2.9906 7:3.7375 8:0.025367 9:0.93019 10:-0.33133 11:0.62073 
-0 -0 1 0 0 0:0.039106 1:0.47162 2:78.0695 3:0.79208 4:16.9384 5:220.0193 6:2.9702 7:3.5342 8:0.029309 9:0.77425 10:-0.38568 11:0.69439 
-0 -1 0 1 0 0:0.037323 1:0.69368 2:78.2427 3:0.754 4:16.9591 5:220.9286 6:2.9501 7:3.662 8:0.026149 9:0.91101 10:-0.33558 11:0.61992 
-0 -0 1 0 0 0:0.041281 1:0.56808 2:78.0082 3:0.77872 4:16.9333 5:220.0831 6:2.9568 7:3.595 8:0.027936 9:0.84403 10:-0.38514 11:0.6937 
-0 -0 1 0 0 0:0.039106 1:0.64783 2:78.0748 3:0.75265 4:16.9391 5:219.5127 6:2.9826 7:3.6758 8:0.026426 9:0.88416 10:-0.38568 11:0.69439 
-0 -0 1 0 0 0:0.037995 1:0.70064 2:78.0824 3:0.74747 4:16.9396 5:219.6197 6:2.9778 7:3.704 8:0.025838 9:0.9145 10:-0.36856 11:0.66948 
-0 -0 1 0 0 0:0.036165 1:0.57808 2:78.0777 3:0.76924 4:16.9421 5:219.4701 6:2.9864 7:3.6353 8:0.027477 9:0.84667 10:-0.34543 11:0.64226 
-0 -0 1 0 0 0:0.038777 1:0.51546 2:77.9709 3:0.78131 4:16.9283 5:219.3206 6:2.9816 7:3.5829 8:0.028484 9:0.80474 10:-0.38033 11:0.68964 
-0 -0 1 0 0 0:0.034676 1:0.80343 2:78.1342 3:0.72269 4:16.9409 5:219.3349 6:2.9915 7:3.7766 8:0.024557 9:0.95874 10:-0.34177 11:0.6329 
-0 -0 1 0 0 0:0.035708 1:0.66648 2:78.0493 3:0.75303 4:16.9356 5:219.2724 6:2.9876 7:3.6923 8:0.026278 9:0.89617 10:-0.34204 11:0.63704 
-0 -0 1 0 0 0:0.036009 1:0.619 2:78.0481 3:0.75733 4:16.9392 5:219.4118 6:2.9834 7:3.6596 8:0.026795 9:0.86754 10:-0.35341 11:0.64888 
-0 -0 1 0 0 0:0.040068 1:0.62425 2:78.043 3:0.75545 4:16.9372 5:219.4847 6:2.9803 7:3.6556 8:0.026726 9:0.86939 10:-0.38378 11:0.69493 
-0 -0 1 0 0 0:0.040032 1:0.58972 2:77.9549 3:0.77877 4:16.9273 5:220.1512 6:2.9472 7:3.5972 8:0.027829 9:0.85691 10:-0.37322 11:0.67452 
-0 -0 1 0 0 0:0.034676 1:0.80343 2:78.1342 3:0.72269 4:16.9409 5:219.3349 6:2.9915 7:3.7766 8:0.024557 9:0.95874 10:-0.34177 11:0.6329 
-0 -0 1 0 0 0:0.036357 1:0.61556 2:78.1626 3:0.76256 4:16.9514 5:219.6371 6:2.9892 7:3.6628 8:0.026977 9:0.86817 10:-0.34474 11:0.64213 
-1 -0 1 0 0 0:0.036357 1:0.71914 2:78.1441 3:0.74066 4:16.9493 5:219.3385 6:2.994 7:3.7332 8:0.025534 9:0.92183 10:-0.34474 11:0.64213 
-0 -0 1 0 0 0:0.041281 1:0.53475 2:77.9773 3:0.78651 4:16.9299 5:220.129 6:2.9526 7:3.5676 8:0.028542 9:0.82347 10:-0.38514 11:0.6937 
-0 -0 1 0 0 0:0.033736 1:0.82091 2:78.0351 3:0.7267 4:16.9345 5:219.3682 6:2.9768 7:3.7671 8:0.024453 9:0.97027 10:-0.32048 11:0.59864 
-0 -0 1 0 0 0:0.040032 1:0.59504 2:77.9512 3:0.7746 4:16.9266 5:220.0272 6:2.951 7:3.6062 8:0.027573 9:0.86015 10:-0.37322 11:0.67452 
-0 -0 0 1 0 0:0.038284 1:0.65881 2:78.1609 3:0.76199 4:16.9521 5:220.7371 6:2.948 7:3.6414 8:0.026625 9:0.89489 10:-0.34649 11:0.6358 
-1 -0 1 0 0 0:0.038777 1:0.60407 2:77.9537 3:0.76271 4:16.9263 5:219.0546 6:2.9859 7:3.6529 8:0.027065 9:0.86078 10:-0.38033 11:0.68964 
-1 -0 1 0 0 0:0.037575 1:0.66257 2:78.0052 3:0.74491 4:16.9346 5:218.9217 6:2.9942 7:3.6992 8:0.026153 9:0.88835 10:-0.37529 11:0.68277 
-0 -0 1 0 0 0:0.036035 1:0.60058 2:78.0337 3:0.76147 4:16.9331 5:219.6172 6:2.9759 7:3.6358 8:0.027081 9:0.85696 10:-0.34213 11:0.63591 
-0 -0 1 0 0 0:0.037871 1:0.68257 2:77.8687 3:0.74793 4:16.9211 5:219.0583 6:2.9719 7:3.6845 8:0.025974 9:0.90446 10:-0.34995 11:0.64611 
-0 -0 0 0.3419558471701258 0 0:0.039318 1:0.64064 2:78.0584 3:0.76573 4:16.9364 5:220.518 6:2.9451 7:3.6271 8:0.026897 9:0.88529 10:-0.36119 11:0.65636 
-0 -0 1 0 0 0:0.038365 1:0.52609 2:77.9776 3:0.77646 4:16.9211 5:219.4089 6:2.9806 7:3.5885 8:0.028214 9:0.81 10:-0.37557 11:0.68281 
-0 -0 1 0 0 0:0.037575 1:0.50785 2:78.0196 3:0.78181 4:16.9363 5:219.3915 6:2.9847 7:3.5797 8:0.028584 9:0.79826 10:-0.37529 11:0.68277 
-0 -0 1 0 0 0:0.036751 1:0.56549 2:78.0028 3:0.76902 4:16.9325 5:219.2372 6:2.9865 7:3.6245 8:0.02761 9:0.83632 10:-0.36093 11:0.66349 
-0 -0 1 0 0 0:0.034737 1:0.80278 2:77.988 3:0.73776 4:16.93 5:219.5656 6:2.9646 7:3.74 8:0.024869 9:0.96421 10:-0.31794 11:0.5933 
-0 -0 1 0 0 0:0.03753 1:0.62905 2:78.1329 3:0.75279 4:16.9466 5:219.4829 6:2.991 7:3.6744 8:0.026595 9:0.87158 10:-0.36872 11:0.67486 
-0 -0 1 0 0 0:0.040119 1:0.45039 2:78.0245 3:0.79968 4:16.9332 5:219.9878 6:2.9667 7:3.5148 8:0.02984 9:0.76063 10:-0.39594 11:0.70724 
-0 -0 1 0 0 0:0.039106 1:0.64783 2:78.0748 3:0.75265 4:16.9391 5:219.5127 6:2.9826 7:3.6758 8:0.026426 9:0.88416 10:-0.38568 11:0.69439 
-0 -0 1 0 0 0:0.03473 1:0.64531 2:77.9737 3:0.75994 4:16.9351 5:219.5486 6:2.9677 7:3.658 8:0.02665 9:0.88624 10:-0.32833 11:0.60983 
-0 -0 1 0 0 0:0.037823 1:0.69981 2:78.1047 3:0.75122 4:16.9423 5:219.4225 6:2.9875 7:3.7104 8:0.026043 9:0.91275 10:-0.35421 11:0.65588 
-0 -0 0 1 0 0:0.037323 1:0.7556 2:78.2459 3:0.74515 4:16.959 5:220.813 6:2.9525 7:3.6954 8:0.025508 9:0.93952 10:-0.33558 11:0.61992 
-0 -0 1 0 0 0:0.03473 1:0.64531 2:77.9737 3:0.75994 4:16.9351 5:219.5486 6:2.9677 7:3.658 8:0.02665 9:0.88624 10:-0.32833 11:0.60983 
-0 -0 0 0.2847488429738515 0 0:0.038284 1:0.68779 2:78.1507 3:0.75993 4:16.9508 5:220.6713 6:2.9481 7:3.6557 8:0.026412 9:0.90887 10:-0.34649 11:0.6358 
-0 -0 1 0 0 0:0.040563 1:0.42145 2:77.9736 3:0.80878 4:16.9292 5:220.1606 6:2.9552 7:3.4797 8:0.030568 9:0.7391 10:-0.3949 11:0.70474 
-1 -0 1 0 0 0:0.034575 1:0.73909 2:78.0895 3:0.73752 4:16.9415 5:219.24 6:2.9906 7:3.7375 8:0.025367 9:0.93019 10:-0.33133 11:0.62073 
-0 -0 1 0 0 0:0.039053 1:0.66635 2:77.7637 3:0.7577 4:16.9024 5:219.3222 6:2.9519 7:3.6496 8:0.026436 9:0.89761 10:-0.36114 11:0.65704 
-0 -0 1 0 0 0:0.03786 1:0.69505 2:78.0732 3:0.74048 4:16.9474 5:219.3451 6:2.9849 7:3.7105 8:0.025758 9:0.90682 10:-0.37066 11:0.67624 
-0 -0 1 0 0 0:0.040975 1:0.51473 2:77.965 3:0.7919 4:16.9273 5:220.1444 6:2.9516 7:3.5513 8:0.028971 9:0.81029 10:-0.38643 11:0.69474 
-0 -0 1 0 0 0:0.03786 1:0.48945 2:78.0902 3:0.78636 4:16.9492 5:219.9263 6:2.9735 7:3.5532 8:0.02892 9:0.7857 10:-0.37066 11:0.67624 
-0 -0 1 0 0 0:0.039053 1:0.61321 2:77.7387 3:0.7721 4:16.8994 5:219.4918 6:2.9449 7:3.6078 8:0.02739 9:0.86902 10:-0.36114 11:0.65704 
-0 -0 1 0 0 0:0.036029 1:0.65821 2:78.0663 3:0.75691 4:16.9355 5:219.4048 6:2.9856 7:3.6842 8:0.026464 9:0.89263 10:-0.34578 11:0.64234 
-0 -0 1 0 0 0:0.038622 1:0.6808 2:78.0142 3:0.7515 4:16.9315 5:219.5529 6:2.9729 7:3.6854 8:0.026126 9:0.90399 10:-0.37467 11:0.67734 
-0 -0 1 0 0 0:0.038365 1:0.52609 2:77.9776 3:0.77646 4:16.9211 5:219.4089 6:2.9806 7:3.5885 8:0.028214 9:0.81 10:-0.37557 11:0.68281 
-0 -0 0 1 0 0:0.039101 1:0.59111 2:78.035 3:0.77479 4:16.9374 5:220.63 6:2.9393 7:3.5915 8:0.027617 9:0.85724 10:-0.3538 11:0.64391 
-0 -0 1 0 0 0:0.038799 1:0.49473 2:78.1414 3:0.78788 4:16.9463 5:219.9473 6:2.9805 7:3.5667 8:0.028923 9:0.79217 10:-0.38423 11:0.6958 
-0 -0 1 0 0 0:0.03786 1:0.69505 2:78.0732 3:0.74048 4:16.9474 5:219.3451 6:2.9849 7:3.7105 8:0.025758 9:0.90682 10:-0.37066 11:0.67624 
-0 -0 1 0 0 0:0.034174 1:0.74183 2:77.9993 3:0.73927 4:16.935 5:219.1163 6:2.9834 7:3.7291 8:0.02542 9:0.93098 10:-0.31304 11:0.59284 
-0 -0 1 0 0 0:0.036009 1:0.619 2:78.0481 3:0.75733 4:16.9392 5:219.4118 6:2.9834 7:3.6596 8:0.026795 9:0.86754 10:-0.35341 11:0.64888 
-0 -0 1 0 0 0:0.038565 1:0.51889 2:78.0964 3:0.77928 4:16.941 5:219.6054 6:2.9866 7:3.5906 8:0.028379 9:0.80615 10:-0.38721 11:0.69806 
-0 -0 0 1 0 0:0.040234 1:0.46943 2:78.0879 3:0.79721 4:16.9422 5:220.5745 6:2.9522 7:3.5166 8:0.029562 9:0.77662 10:-0.3845 11:0.69194 
-0 -0 1 0 0 0:0.038735 1:0.45382 2:78.0465 3:0.80074 4:16.9397 5:220.2325 6:2.9596 7:3.5122 8:0.029865 9:0.76494 10:-0.37823 11:0.68313 
-0 -0 1 0 0 0:0.038001 1:0.6706 2:78.1721 3:0.75112 4:16.9522 5:219.5894 6:2.9901 7:3.6995 8:0.026198 9:0.89759 10:-0.35652 11:0.65882 
-0 -0 1 0 0 0:0.038622 1:0.47642 2:78.0218 3:0.79466 4:16.9325 5:220.1526 6:2.9597 7:3.5302 8:0.029387 9:0.78088 10:-0.37467 11:0.67734 
-0 -0 1 0 0 0:0.038033 1:0.53448 2:78.0094 3:0.77934 4:16.9313 5:219.4535 6:2.9811 7:3.597 8:0.028237 9:0.81914 10:-0.37282 11:0.67831 
-0 -0 1 0 0 0:0.038565 1:0.51889 2:78.0964 3:0.77928 4:16.941 5:219.6054 6:2.9866 7:3.5906 8:0.028379 9:0.80615 10:-0.38721 11:0.69806 
-1 -0 1 0 0 0:0.037719 1:0.65385 2:78.0344 3:0.75191 4:16.9382 5:219.1292 6:2.9905 7:3.6896 8:0.026369 9:0.88734 10:-0.37209 11:0.67787 
-1 -0 1 0 0 0:0.037294 1:0.58843 2:78.0936 3:0.7622 4:16.9377 5:219.3081 6:2.995 7:3.6506 8:0.027209 9:0.8487 10:-0.37132 11:0.67852 
-0 -0 1 0 0 0:0.036029 1:0.70459 2:78.0147 3:0.74851 4:16.9322 5:219.4359 6:2.9761 7:3.7012 8:0.025908 9:0.91509 10:-0.3423 11:0.63597 
-1 -0 1 0 0 0:0.035679 1:0.76463 2:78.0375 3:0.73452 4:16.936 5:219.0285 6:2.991 7:3.7551 8:0.025064 9:0.94382 10:-0.34226 11:0.63626 
-0 -0 1 0 0 0:0.042216 1:0.56201 2:78.1572 3:0.77138 4:16.9502 5:219.6791 6:2.9891 7:3.6256 8:0.027716 9:0.83533 10:-0.41752 11:0.73389 
-0 -0 1 0 0 0:0.034874 1:0.84392 2:78.0283 3:0.7265 4:16.9338 5:219.2851 6:2.9781 7:3.7739 8:0.024457 9:0.97682 10:-0.32772 11:0.61343 
-1 -0 1 0 0 0:0.037406 1:0.61335 2:77.9931 3:0.75512 4:16.9299 5:218.7481 6:3.0015 7:3.6747 8:0.026832 9:0.86116 10:-0.373 11:0.68243 
-1 -0 1 0 0 0:0.036042 1:0.61456 2:77.987 3:0.75807 4:16.9307 5:218.883 6:2.9956 7:3.6681 8:0.0269 9:0.8638 10:-0.3565 11:0.65828 
-1 -0 1 0 0 0:0.037294 1:0.58843 2:78.0936 3:0.7622 4:16.9377 5:219.3081 6:2.995 7:3.6506 8:0.027209 9:0.8487 10:-0.37132 11:0.67852 
-1 -0 1 0 0 0:0.037294 1:0.58456 2:78.1004 3:0.76152 4:16.9384 5:219.3017 6:2.9962 7:3.6486 8:0.027238 9:0.84499 10:-0.37132 11:0.67852 
-0 -0 1 0 0 0:0.037757 1:0.54951 2:78.0037 3:0.77773 4:16.9328 5:219.9502 6:2.9616 7:3.5883 8:0.028041 9:0.83004 10:-0.3631 11:0.66023 
-0 -0 1 0 0 0:0.037657 1:0.46982 2:78.0725 3:0.79118 4:16.9376 5:219.5253 6:2.9885 7:3.5517 8:0.029309 9:0.77095 10:-0.37645 11:0.68665 
-0 -0 1 0 0 0:0.042216 1:0.56201 2:78.1572 3:0.77138 4:16.9502 5:219.6791 6:2.9891 7:3.6256 8:0.027716 9:0.83533 10:-0.41752 11:0.73389 
-0 -0 1 0 0 0:0.037719 1:0.51287 2:78.0347 3:0.78066 4:16.9383 5:219.4362 6:2.9846 7:3.5831 8:0.028499 9:0.80154 10:-0.37209 11:0.67787 
-1 -0 1 0 0 0:0.036042 1:0.67425 2:77.9978 3:0.74305 4:16.9322 5:218.759 6:2.9991 7:3.7125 8:0.026021 9:0.89448 10:-0.3565 11:0.65828 
-0 -0 1 0 0 0:0.037719 1:0.51287 2:78.0347 3:0.78066 4:16.9383 5:219.4362 6:2.9846 7:3.5831 8:0.028499 9:0.80154 10:-0.37209 11:0.67787 
-0 -0 1 0 0 0:0.037757 1:0.68571 2:77.9969 3:0.75235 4:16.932 5:219.644 6:2.9669 7:3.6821 8:0.026103 9:0.90754 10:-0.3631 11:0.66023 
-0 -0 1 0 0 0:0.036029 1:0.65745 2:78.0145 3:0.75402 4:16.9323 5:219.4819 6:2.9761 7:3.6746 8:0.026379 9:0.89092 10:-0.3423 11:0.63597 
-0 -0 1 0 0 0:0.035679 1:0.58431 2:78.0378 3:0.76585 4:16.9364 5:219.3243 6:2.9869 7:3.6375 8:0.027371 9:0.84742 10:-0.34226 11:0.63626 
-0 -0 1 0 0 0:0.037757 1:0.54951 2:78.0037 3:0.77773 4:16.9328 5:219.9502 6:2.9616 7:3.5883 8:0.028041 9:0.83004 10:-0.3631 11:0.66023 
-1 -0 1 0 0 0:0.037657 1:0.66267 2:78.0572 3:0.74352 4:16.9359 5:218.8916 6:3.0025 7:3.7098 8:0.026112 9:0.88775 10:-0.37645 11:0.68665 
-1 -0 1 0 0 0:0.036195 1:0.52252 2:77.9996 3:0.77673 4:16.9324 5:219.1363 6:2.9912 7:3.5968 8:0.028277 9:0.80659 10:-0.35552 11:0.6581 
-1 -0 1 0 0 0:0.035818 1:0.71175 2:78.0733 3:0.74169 4:16.9419 5:219.2231 6:2.9898 7:3.7254 8:0.025616 9:0.91806 10:-0.34376 11:0.63875 
-0 -0 1 0 0 0:0.037757 1:0.68571 2:77.9969 3:0.75235 4:16.932 5:219.644 6:2.9669 7:3.6821 8:0.026103 9:0.90754 10:-0.3631 11:0.66023 
-0 -0 1 0 0 0:0.038794 1:0.66357 2:78.125 3:0.75131 4:16.9472 5:219.5409 6:2.9864 7:3.6918 8:0.026253 9:0.89367 10:-0.38426 11:0.69166 
-0 -0 1 0 0 0:0.039001 1:0.70329 2:78.0582 3:0.75479 4:16.9399 5:219.94 6:2.9627 7:3.6827 8:0.026118 9:0.91612 10:-0.35801 11:0.65704 
-1 -0 1 0 0 0:0.037719 1:0.65385 2:78.0344 3:0.75191 4:16.9382 5:219.1292 6:2.9905 7:3.6896 8:0.026369 9:0.88734 10:-0.37209 11:0.67787 
-1 -0 1 0 0 0:0.037406 1:0.54002 2:78.0095 3:0.77149 4:16.9319 5:218.9921 6:2.9973 7:3.6163 8:0.027959 9:0.81682 10:-0.373 11:0.68243 
-0 -0 1 0 0 0:0.036029 1:0.70459 2:78.0147 3:0.74851 4:16.9322 5:219.4359 6:2.9761 7:3.7012 8:0.025908 9:0.91509 10:-0.3423 11:0.63597 
-0 -0 1 0 0 0:0.037285 1:0.48752 2:78.0803 3:0.78865 4:16.9383 5:219.6668 6:2.9838 7:3.5635 8:0.02903 9:0.78594 10:-0.37023 11:0.67618 
-0 -0 1 0 0 0:0.042044 1:0.52405 2:78.2314 3:0.78073 4:16.957 5:220.0851 6:2.9851 7:3.5933 8:0.028387 9:0.81157 10:-0.41954 11:0.73587 
-0 -0 1 0 0 0:0.038622 1:0.65621 2:78.1902 3:0.75124 4:16.9554 5:219.7155 6:2.988 7:3.6886 8:0.026336 9:0.88844 10:-0.38188 11:0.68899 
-0 -0 1 0 0 0:0.037653 1:0.74911 2:78.021 3:0.74204 4:16.9351 5:219.7111 6:2.965 7:3.7149 8:0.025358 9:0.93845 10:-0.35946 11:0.65325 
-0 -0 1 0 0 0:0.034874 1:0.64231 2:78.0113 3:0.75398 4:16.9316 5:219.4818 6:2.9764 7:3.6643 8:0.026512 9:0.88115 10:-0.32772 11:0.61343 
-1 -0 1 0 0 0:0.036232 1:0.69041 2:78.2435 3:0.73628 4:16.9589 5:219.407 6:3.0047 7:3.7295 8:0.02574 9:0.90073 10:-0.36254 11:0.66854 
-1 -0 1 0 0 0:0.040569 1:0.55878 2:78.0133 3:0.7697 4:16.9317 5:219.1998 6:2.9898 7:3.6221 8:0.027702 9:0.83134 10:-0.40435 11:0.71889 
-0 -0 1 0 0 0:0.037653 1:0.74911 2:78.021 3:0.74204 4:16.9351 5:219.7111 6:2.965 7:3.7149 8:0.025358 9:0.93845 10:-0.35946 11:0.65325 
-1 -0 1 0 0 0:0.037294 1:0.58456 2:78.1004 3:0.76152 4:16.9384 5:219.3017 6:2.9962 7:3.6486 8:0.027238 9:0.84499 10:-0.37132 11:0.67852 
-0 -0 1 0 0 0:0.037132 1:0.61612 2:78.156 3:0.75865 4:16.9458 5:219.7576 6:2.9851 7:3.6584 8:0.026872 9:0.86602 10:-0.3698 11:0.67355 
-0 -0 0.2102988738478199 0 0 0:0.036327 1:0.72654 2:78.0601 3:0.74289 4:16.9408 5:219.6912 6:2.9709 7:3.7087 8:0.025566 9:0.92608 10:-0.34921 11:0.64069 
-0 -0 1 0 0 0:0.038794 1:0.66357 2:78.125 3:0.75131 4:16.9472 5:219.5409 6:2.9864 7:3.6918 8:0.026253 9:0.89367 10:-0.38426 11:0.69166 
-1 -0 1 0 0 0:0.036195 1:0.76042 2:78.0048 3:0.72511 4:16.9331 5:218.6353 6:3.0012 7:3.7674 8:0.024962 9:0.93618 10:-0.35552 11:0.6581 
-0 -0 1 0 0 0:0.034874 1:0.84392 2:78.0283 3:0.7265 4:16.9338 5:219.2851 6:2.9781 7:3.7739 8:0.024457 9:0.97682 10:-0.32772 11:0.61343 
-0 -0 1 0 0 0:0.040569 1:0.48365 2:78.0046 3:0.7906 4:16.9308 5:219.4987 6:2.9807 7:3.5566 8:0.02915 9:0.7839 10:-0.40435 11:0.71889 
-1 -0 1 0 0 0:0.035818 1:0.71175 2:78.0733 3:0.74169 4:16.9419 5:219.2231 6:2.9898 7:3.7254 8:0.025616 9:0.91806 10:-0.34376 11:0.63875 
-0 -0 1 0 0 0:0.042044 1:0.52405 2:78.2314 3:0.78073 4:16.957 5:220.0851 6:2.9851 7:3.5933 8:0.028387 9:0.81157 10:-0.41954 11:0.73587 
-0 -0 1 0 0 0:0.039001 1:0.70329 2:78.0582 3:0.75479 4:16.9399 5:219.94 6:2.9627 7:3.6827 8:0.026118 9:0.91612 10:-0.35801 11:0.65704 
-0 -0 1 0 0 0:0.035818 1:0.6291 2:78.1253 3:0.75965 4:16.9478 5:219.5933 6:2.9857 7:3.6667 8:0.026797 9:0.875 10:-0.34376 11:0.63875 
-1 -0 1 0 0 0:0.037414 1:0.70695 2:78.1302 3:0.73771 4:16.9475 5:219.1921 6:2.9981 7:3.7316 8:0.025603 9:0.9125 10:-0.36753 11:0.67347 
-1 -0 1 0 0 0:0.037285 1:0.69276 2:78.0852 3:0.74241 4:16.9385 5:219.1133 6:2.9969 7:3.7215 8:0.025826 9:0.9063 10:-0.37023 11:0.67618 
-0 -0 1 0 0 0:0.035679 1:0.58431 2:78.0378 3:0.76585 4:16.9364 5:219.3243 6:2.9869 7:3.6375 8:0.027371 9:0.84742 10:-0.34226 11:0.63626 
-0 -0 0.9843474567852244 0 0 0:0.036327 1:0.72654 2:78.0601 3:0.74289 4:16.9408 5:219.6912 6:2.9709 7:3.7087 8:0.025566 9:0.92608 10:-0.34921 11:0.64069 
-0 -0 1 0 0 0:0.037285 1:0.48752 2:78.0803 3:0.78865 4:16.9383 5:219.6668 6:2.9838 7:3.5635 8:0.02903 9:0.78594 10:-0.37023 11:0.67618 
-0 -0 1 0 0 0:0.037657 1:0.46982 2:78.0725 3:0.79118 4:16.9376 5:219.5253 6:2.9885 7:3.5517 8:0.029309 9:0.77095 10:-0.37645 11:0.68665 
-1 -0 1 0 0 0:0.036232 1:0.69041 2:78.2435 3:0.73628 4:16.9589 5:219.407 6:3.0047 7:3.7295 8:0.02574 9:0.90073 10:-0.36254 11:0.66854 
-1 -0 1 0 0 0:0.037406 1:0.54002 2:78.0095 3:0.77149 4:16.9319 5:218.9921 6:2.9973 7:3.6163 8:0.027959 9:0.81682 10:-0.373 11:0.68243 
-1 -0 1 0 0 0:0.037406 1:0.61335 2:77.9931 3:0.75512 4:16.9299 5:218.7481 6:3.0015 7:3.6747 8:0.026832 9:0.86116 10:-0.373 11:0.68243 
-0 -0 1 0 0 0:0.038622 1:0.65621 2:78.1902 3:0.75124 4:16.9554 5:219.7155 6:2.988 7:3.6886 8:0.026336 9:0.88844 10:-0.38188 11:0.68899 
-1 -0 1 0 0 0:0.036232 1:0.55547 2:78.2268 3:0.76876 4:16.9569 5:219.6839 6:2.9977 7:3.629 8:0.027726 9:0.82742 10:-0.36254 11:0.66854 
-0 -0 1 0 0 0:0.037414 1:0.47563 2:78.1432 3:0.78927 4:16.9489 5:219.8262 6:2.9853 7:3.5526 8:0.029175 9:0.77491 10:-0.36753 11:0.67347 
-0 -0 1 0 0 0:0.035818 1:0.6291 2:78.1253 3:0.75965 4:16.9478 5:219.5933 6:2.9857 7:3.6667 8:0.026797 9:0.875 10:-0.34376 11:0.63875 
-1 -0 1 0 0 0:0.036042 1:0.67425 2:77.9978 3:0.74305 4:16.9322 5:218.759 6:2.9991 7:3.7125 8:0.026021 9:0.89448 10:-0.3565 11:0.65828 
-1 -0 1 0 0 0:0.035679 1:0.76463 2:78.0375 3:0.73452 4:16.936 5:219.0285 6:2.991 7:3.7551 8:0.025064 9:0.94382 10:-0.34226 11:0.63626 
-0 -0 1 0 0 0:0.034874 1:0.64231 2:78.0113 3:0.75398 4:16.9316 5:219.4818 6:2.9764 7:3.6643 8:0.026512 9:0.88115 10:-0.32772 11:0.61343 
-1 -0 1 0 0 0:0.037657 1:0.66267 2:78.0572 3:0.74352 4:16.9359 5:218.8916 6:3.0025 7:3.7098 8:0.026112 9:0.88775 10:-0.37645 11:0.68665 
-1 -0 1 0 0 0:0.036195 1:0.76042 2:78.0048 3:0.72511 4:16.9331 5:218.6353 6:3.0012 7:3.7674 8:0.024962 9:0.93618 10:-0.35552 11:0.6581 
-1 -0 1 0 0 0:0.036195 1:0.52252 2:77.9996 3:0.77673 4:16.9324 5:219.1363 6:2.9912 7:3.5968 8:0.028277 9:0.80659 10:-0.35552 11:0.6581 
-0 -0 1 0 0 0:0.036029 1:0.65745 2:78.0145 3:0.75402 4:16.9323 5:219.4819 6:2.9761 7:3.6746 8:0.026379 9:0.89092 10:-0.3423 11:0.63597 
-0 -0 1 0 0 0:0.037132 1:0.61612 2:78.156 3:0.75865 4:16.9458 5:219.7576 6:2.9851 7:3.6584 8:0.026872 9:0.86602 10:-0.3698 11:0.67355 
-1 -0 1 0 0 0:0.037414 1:0.70695 2:78.1302 3:0.73771 4:16.9475 5:219.1921 6:2.9981 7:3.7316 8:0.025603 9:0.9125 10:-0.36753 11:0.67347 
-1 -0 1 0 0 0:0.040569 1:0.55878 2:78.0133 3:0.7697 4:16.9317 5:219.1998 6:2.9898 7:3.6221 8:0.027702 9:0.83134 10:-0.40435 11:0.71889 
-1 -0 1 0 0 0:0.037285 1:0.69276 2:78.0852 3:0.74241 4:16.9385 5:219.1133 6:2.9969 7:3.7215 8:0.025826 9:0.9063 10:-0.37023 11:0.67618 
-0 -0 1 0 0 0:0.037414 1:0.47563 2:78.1432 3:0.78927 4:16.9489 5:219.8262 6:2.9853 7:3.5526 8:0.029175 9:0.77491 10:-0.36753 11:0.67347 
-0 -0 1 0 0 0:0.040569 1:0.48365 2:78.0046 3:0.7906 4:16.9308 5:219.4987 6:2.9807 7:3.5566 8:0.02915 9:0.7839 10:-0.40435 11:0.71889 
-1 -0 1 0 0 0:0.036042 1:0.61456 2:77.987 3:0.75807 4:16.9307 5:218.883 6:2.9956 7:3.6681 8:0.0269 9:0.8638 10:-0.3565 11:0.65828 
-1 -0 1 0 0 0:0.036232 1:0.55547 2:78.2268 3:0.76876 4:16.9569 5:219.6839 6:2.9977 7:3.629 8:0.027726 9:0.82742 10:-0.36254 11:0.66854 
-0 -0 -1 0 0 0:0.046663 1:0.62607 2:77.9103 3:0.77932 4:16.9449 5:219.4908 6:2.9594 7:3.6049 8:0.028011 9:0.85803 10:-0.37381 11:0.68864 
-0 -0 -1 0 0 0:0.040549 1:0.81097 2:78.1626 3:0.73595 4:17.003 5:219.8436 6:2.9639 7:3.7235 8:0.025441 9:0.9429 10:-0.31664 11:0.60479 
-1 -0 -1 0 0 0:0.042299 1:0.66528 2:77.9225 3:0.75116 4:16.9352 5:218.5072 6:2.997 7:3.6927 8:0.026488 9:0.88626 10:-0.36692 11:0.68268 
-0 -0 -1 0 0 0:0.042899 1:0.57149 2:77.9413 3:0.7893 4:16.9272 5:219.1099 6:2.9832 7:3.5989 8:0.028811 9:0.82833 10:-0.37806 11:0.69353 
-1 -0 -1 0 0 0:0.039379 1:0.70326 2:77.9388 3:0.7389 4:16.9312 5:218.3436 6:3.0047 7:3.7297 8:0.025834 9:0.90623 10:-0.34625 11:0.65595 
-1 -0 -1 0 0 0:0.034922 1:0.81386 2:78.0563 3:0.70907 4:16.9302 5:218.2248 6:3.0221 7:3.8238 8:0.024534 9:0.95194 10:-0.31766 11:0.61517 
-0 -0 -1 0 0 0:0.049687 1:0.43572 2:77.7182 3:0.81577 4:16.9107 5:219.2683 6:2.954 7:3.4871 8:0.031028 9:0.75035 10:-0.41781 11:0.7429 
-0.6994551728467306 -0 -0 0 0 0:0.04262 1:0.65815 2:77.7754 3:0.76332 4:16.9113 5:218.285 6:2.9893 7:3.6723 8:0.027002 9:0.88219 10:-0.35954 11:0.67137 
-1 -0 -1 0 0 0:0.039343 1:0.66005 2:78.5688 3:0.76309 4:16.9967 5:220.4498 6:3.007 7:3.6929 8:0.026988 9:0.88273 10:-0.35285 11:0.66593 
-0 -0 -1 0 0 0:0.040549 1:0.81097 2:78.1626 3:0.73595 4:17.003 5:219.8436 6:2.9639 7:3.7235 8:0.025441 9:0.9429 10:-0.31664 11:0.60479 
-1 -0 -0 0 0 0:0.039566 1:0.837 2:77.482 3:0.73098 4:16.8948 5:217.0916 6:2.9871 7:3.762 8:0.025177 9:0.95411 10:-0.32059 11:0.61339 
-1 -0 -1 0 0 0:0.041164 1:0.71987 2:78.0704 3:0.76283 4:16.9483 5:219.0581 6:2.9937 7:3.6834 8:0.026957 9:0.89503 10:-0.35195 11:0.66252 
-0 -0 -1 0 0 0:0.044209 1:0.514 2:78.1196 3:0.80011 4:16.954 5:220.1681 6:2.9673 7:3.5546 8:0.029627 9:0.80157 10:-0.38393 11:0.70048 
-0 -0 -1 0 0 0:0.046942 1:0.60177 2:77.9938 3:0.77932 4:16.9509 5:219.5113 6:2.9702 7:3.608 8:0.028129 9:0.8457 10:-0.39495 11:0.71474 
-1 -0 -0 0 0 0:0.039825 1:0.70534 2:77.723 3:0.75436 4:16.9106 5:217.8715 6:2.9951 7:3.6926 8:0.026582 9:0.89502 10:-0.34079 11:0.6447 
-0 -0 -1 0 0 0:0.041179 1:0.6564 2:78.0024 3:0.76341 4:16.9545 5:219.3476 6:2.9746 7:3.6549 8:0.027037 9:0.88015 10:-0.34561 11:0.64791 
-1 -0 -1 0 0 0:0.041776 1:0.6958 2:77.8713 3:0.74934 4:16.9319 5:218.366 6:2.9943 7:3.7022 8:0.026385 9:0.89571 10:-0.35782 11:0.66691 
-1 -0 -1 0 0 0:0.036686 1:0.81992 2:79.3441 3:0.72674 4:17.1049 5:223.1996 6:2.9907 7:3.7633 8:0.02514 9:0.94711 10:-0.29928 11:0.57923 
-0 -0 -1 0 0 0:0.046782 1:0.49213 2:77.7519 3:0.80324 4:16.916 5:219.0672 6:2.9629 7:3.53 8:0.029957 9:0.78507 10:-0.39302 11:0.71383 
-1 -0 -1 0 0 0:0.039109 1:0.70116 2:78.2482 3:0.73684 4:16.9829 5:219.3302 6:3.0026 7:3.7297 8:0.025929 9:0.90058 10:-0.34962 11:0.65701 
-1 -0 -1 0 0 0:0.039379 1:0.71139 2:77.9144 3:0.74313 4:16.9281 5:218.3039 6:3.003 7:3.7236 8:0.025986 9:0.90786 10:-0.34625 11:0.65595 
-1 -0 -1 0 0 0:0.039379 1:0.70326 2:77.9388 3:0.7389 4:16.9312 5:218.3436 6:3.0047 7:3.7297 8:0.025834 9:0.90623 10:-0.34625 11:0.65595 
-1 -0 -0 0 0 0:0.039825 1:0.70534 2:77.723 3:0.75436 4:16.9106 5:217.8715 6:2.9951 7:3.6926 8:0.026582 9:0.89502 10:-0.34079 11:0.6447 
-1 -0 -1 0 0 0:0.043652 1:0.65111 2:78.0662 3:0.75664 4:16.9532 5:219.1003 6:2.993 7:3.6749 8:0.026802 9:0.87715 10:-0.37075 11:0.68715 
-0 -0 -1 0 0 0:0.043688 1:0.57098 2:77.8373 3:0.77529 4:16.9333 5:218.6745 6:2.9826 7:3.6139 8:0.027957 9:0.83665 10:-0.37479 11:0.69247 
-1 -0 -1 0 0 0:0.038058 1:0.68533 2:77.9604 3:0.75067 4:16.9458 5:218.6128 6:2.9957 7:3.7004 8:0.026405 9:0.89437 10:-0.32767 11:0.62416 
-0 -0 -1 0 0 0:0.046942 1:0.51463 2:77.9887 3:0.80562 4:16.9501 5:220.1716 6:2.9492 7:3.5311 8:0.030046 9:0.79821 10:-0.39495 11:0.71474 
-0 -0 -0 1 0 0:0.049393 1:0.56983 2:77.4129 3:0.80207 4:16.8967 5:219.0197 6:2.9173 7:3.5191 8:0.029703 9:0.82021 10:-0.38648 11:0.69664 
-0 -0 -1 0 0 0:0.040699 1:0.66086 2:78.1556 3:0.76853 4:16.9556 5:219.589 6:2.9875 7:3.6565 8:0.02737 9:0.87419 10:-0.33759 11:0.6401 
-1 -0 -1 0 0 0:0.043108 1:0.65018 2:78.0759 3:0.76169 4:16.9511 5:218.9628 6:2.9998 7:3.6754 8:0.027079 9:0.87291 10:-0.37192 11:0.68947 
-1 -0 -0 0 0 0:0.042317 1:0.66566 2:77.6735 3:0.75515 4:16.9006 5:217.7892 6:2.9945 7:3.6809 8:0.026771 9:0.87978 10:-0.36753 11:0.68218 
-0 -0 -1 0 0 0:0.047517 1:0.49978 2:77.7923 3:0.79897 4:16.9275 5:219.1651 6:2.9624 7:3.5327 8:0.02969 9:0.78617 10:-0.39872 11:0.71833 
-1 -0 -1 0 0 0:0.039379 1:0.71139 2:77.9144 3:0.74313 4:16.9281 5:218.3039 6:3.003 7:3.7236 8:0.025986 9:0.90786 10:-0.34625 11:0.65595 
-0 -0 -1 0 0 0:0.050272 1:0.63867 2:77.7054 3:0.77682 4:16.9183 5:219.2486 6:2.944 7:3.5882 8:0.027952 9:0.85591 10:-0.38953 11:0.70116 
-0 -0 -1 0 0 0:0.048724 1:0.49438 2:77.8765 3:0.80073 4:16.918 5:219.2817 6:2.9725 7:3.5458 8:0.029769 9:0.78791 10:-0.41976 11:0.74428 
-0.1981802830424 -0 -0 0 0 0:0.04262 1:0.65815 2:77.7754 3:0.76332 4:16.9113 5:218.285 6:2.9893 7:3.6723 8:0.027002 9:0.88219 10:-0.35954 11:0.67137 
-0 -0 -1 0 0 0:0.042449 1:0.75728 2:78.9523 3:0.74761 4:17.0676 5:222.2327 6:2.9795 7:3.7043 8:0.026132 9:0.9163 10:-0.36148 11:0.66992 
-0 -1 -1 1 0 0:0.052014 1:0.43606 2:77.7013 3:0.81726 4:16.9119 5:220.2651 6:2.9157 7:3.4479 8:0.031144 9:0.75057 10:-0.41417 11:0.72789 
-1 -0 -1 0 0 0:0.041164 1:0.7166 2:78.0569 3:0.75515 4:16.9468 5:218.9444 6:2.9963 7:3.7081 8:0.026444 9:0.90731 10:-0.35195 11:0.66252 
-1 -0 -1 0 0 0:0.038058 1:0.89931 2:77.9779 3:0.71667 4:16.9481 5:218.3277 6:3.0002 7:3.8039 8:0.024617 9:0.9731 10:-0.32767 11:0.62416 
-1 -0 -0 0 0 0:0.038565 1:0.65125 2:76.4068 3:0.74818 4:16.7477 5:213.1339 6:3.0133 7:3.7099 8:0.026497 9:0.87806 10:-0.35604 11:0.66883 
-0 -0 -1 1 0 0:0.052014 1:0.59339 2:77.7107 3:0.79078 4:16.9129 5:219.6775 6:2.9322 7:3.5488 8:0.028886 9:0.83326 10:-0.41417 11:0.72789 
-1 -0 -1 0 0 0:0.036547 1:0.71443 2:77.8605 3:0.73523 4:16.9358 5:218.1119 6:3.0004 7:3.7363 8:0.025651 9:0.91179 10:-0.31962 11:0.61206 
-0 -0 -1 0 0 0:0.041776 1:0.67293 2:77.8605 3:0.76376 4:16.9311 5:218.5417 6:2.9875 7:3.6673 8:0.027089 9:0.88096 10:-0.35782 11:0.66691 
-1 -0 -1 0 0 0:0.039687 1:0.67838 2:78.1361 3:0.74066 4:16.9486 5:218.8717 6:3.0112 7:3.724 8:0.026101 9:0.89169 10:-0.35433 11:0.6675 
-0 -0 -1 0 0 0:0.047564 1:0.58151 2:77.7598 3:0.78732 4:16.917 5:219.108 6:2.9591 7:3.5785 8:0.028685 9:0.83159 10:-0.39768 11:0.71708 
-0 -0 -1 0 0 0:0.050272 1:0.63867 2:77.7054 3:0.77682 4:16.9183 5:219.2486 6:2.944 7:3.5882 8:0.027952 9:0.85591 10:-0.38953 11:0.70116 
-0 -0 -1 0 0 0:0.042449 1:0.75728 2:78.9523 3:0.74761 4:17.0676 5:222.2327 6:2.9795 7:3.7043 8:0.026132 9:0.9163 10:-0.36148 11:0.66992 
-1 -0 -0 0 0 0:0.038565 1:0.64002 2:76.426 3:0.75236 4:16.7497 5:213.2463 6:3.012 7:3.6997 8:0.026686 9:0.87294 10:-0.35604 11:0.66883 
-1 -0 -1 0 0 0:0.038734 1:0.832 2:78.0752 3:0.73059 4:16.9529 5:218.7652 6:2.9999 7:3.772 8:0.025197 9:0.95169 10:-0.32997 11:0.63092 
-1 -0 -1 0 0 0:0.04012 1:0.65185 2:77.9475 3:0.76777 4:16.9123 5:218.4035 6:3.0098 7:3.6831 8:0.027299 9:0.87501 10:-0.36529 11:0.68341 
-0 -0 -1 0 0 0:0.041179 1:0.78585 2:77.991 3:0.73862 4:16.9531 5:218.9709 6:2.982 7:3.7247 8:0.025735 9:0.92775 10:-0.34561 11:0.64791 
-0 -0 -1 0 0 0:0.047194 1:0.45604 2:78.0527 3:0.80912 4:16.9526 5:220.1448 6:2.9609 7:3.5066 8:0.030479 9:0.76306 10:-0.40489 11:0.7281 
-1 -0 -1 0 0 0:0.037677 1:0.69552 2:78.2863 3:0.75839 4:16.9442 5:219.4124 6:3.0137 7:3.7133 8:0.026692 9:0.8968 10:-0.342 11:0.6488 
-1 -0 -0 0 0 0:0.038676 1:0.61384 2:77.8467 3:0.75736 4:16.9097 5:218.0932 6:3.0083 7:3.678 8:0.026988 9:0.85985 10:-0.35185 11:0.66432 
-0 -0 -1 0 0 0:0.04184 1:0.67431 2:79.0204 3:0.77192 4:17.0637 5:222.4577 6:2.9851 7:3.6547 8:0.027516 9:0.87675 10:-0.34375 11:0.64896 
-1 -0 -1 0 0 0:0.038496 1:0.61953 2:78.0075 3:0.7586 4:16.9313 5:218.6523 6:3.0065 7:3.6778 8:0.026959 9:0.86478 10:-0.34531 11:0.65408 
-0 -0 -1 0 0 0:0.043688 1:0.57098 2:77.8373 3:0.77529 4:16.9333 5:218.6745 6:2.9826 7:3.6139 8:0.027957 9:0.83665 10:-0.37479 11:0.69247 
-0 -0 -1 0 0 0:0.044407 1:0.6441 2:77.9257 3:0.76738 4:16.9424 5:219.3244 6:2.9675 7:3.6268 8:0.027404 9:0.86491 10:-0.36579 11:0.67517 
-0 -1 -1 1 0 0:0.047273 1:0.61534 2:78.9497 3:0.77537 4:17.0652 5:223.3627 6:2.9447 7:3.5834 8:0.027955 9:0.84674 10:-0.38512 11:0.6934 
-1 -0 -1 0 0 0:0.039109 1:0.59601 2:78.2452 3:0.7657 4:16.9828 5:219.6723 6:2.9938 7:3.6505 8:0.027386 9:0.85168 10:-0.34962 11:0.65701 
-1 -0 -1 0 0 0:0.039687 1:0.67838 2:78.1361 3:0.74066 4:16.9486 5:218.8717 6:3.0112 7:3.724 8:0.026101 9:0.89169 10:-0.35433 11:0.6675 
-1 -0 -0 0 0 0:0.039825 1:0.77368 2:77.7222 3:0.74154 4:16.9106 5:217.7438 6:2.9971 7:3.7377 8:0.025709 9:0.93069 10:-0.34079 11:0.6447 
-0 -0 -1 1 0 0:0.050272 1:0.488 2:77.7496 3:0.80411 4:16.9235 5:220.0114 6:2.9274 7:3.4971 8:0.02998 9:0.78685 10:-0.38953 11:0.70116 
-0 -0 -1 0 0 0:0.045393 1:0.68038 2:78.0085 3:0.76762 4:16.9469 5:219.2601 6:2.9794 7:3.6546 8:0.027264 9:0.88129 10:-0.37578 11:0.69374 
-0 -0 -1 0 0 0:0.047194 1:0.5919 2:78.0486 3:0.77627 4:16.9524 5:219.4408 6:2.9806 7:3.617 8:0.027997 9:0.84236 10:-0.40489 11:0.7281 
-0 -0 -1 0 0 0:0.044209 1:0.67667 2:78.145 3:0.76202 4:16.9566 5:219.4614 6:2.9897 7:3.6745 8:0.026989 9:0.88394 10:-0.38393 11:0.70048 
-0 -0 -1 0 0 0:0.043165 1:0.72444 2:77.9927 3:0.75011 4:16.9402 5:218.9007 6:2.9898 7:3.7007 8:0.026344 9:0.90454 10:-0.36005 11:0.67302 
-1 -0 -1 0 0 0:0.042899 1:0.75778 2:77.95 3:0.7572 4:16.9285 5:218.598 6:2.9958 7:3.7101 8:0.026545 9:0.9127 10:-0.37806 11:0.69353 
-0 -0 -1 0 0 0:0.047564 1:0.52524 2:77.7862 3:0.8 4:16.9197 5:219.4947 6:2.9505 7:3.5372 8:0.029643 9:0.80266 10:-0.39768 11:0.71708 
-1 -0 -1 0 0 0:0.039343 1:0.66005 2:78.5688 3:0.76309 4:16.9967 5:220.4498 6:3.007 7:3.6929 8:0.026988 9:0.88273 10:-0.35285 11:0.66593 
-1 -0 -1 0 0 0:0.038976 1:0.70072 2:77.8991 3:0.75446 4:16.9177 5:218.2766 6:3.0044 7:3.7091 8:0.026467 9:0.90073 10:-0.34816 11:0.65762 
-0 -0.2620146778202545 -1 1 0 0:0.04868 1:0.5653 2:77.779 3:0.79204 4:16.9356 5:220.1444 6:2.9215 7:3.5349 8:0.028963 9:0.82761 10:-0.37344 11:0.67783 
-0 -0 -1 0 0 0:0.046287 1:0.5772 2:77.8942 3:0.78126 4:16.9356 5:219.6781 6:2.9542 7:3.578 8:0.028309 9:0.83462 10:-0.36938 11:0.6789 
-0 -0 -1 0 0 0:0.041179 1:0.6564 2:78.0024 3:0.76341 4:16.9545 5:219.3476 6:2.9746 7:3.6549 8:0.027037 9:0.88015 10:-0.34561 11:0.64791 
-1 -0 -1 0 0 0:0.037677 1:0.84523 2:78.2745 3:0.73114 4:16.943 5:219.02 6:3.021 7:3.7901 8:0.025271 9:0.95019 10:-0.342 11:0.6488 
-0.6166938162668003 -0 -1 0.06795634523589922 0.8604324692704988 0:0.036686 1:1.0329 2:79.3309 3:0.70238 4:17.1035 5:222.9722 6:2.9896 7:3.8453 8:0.023749 9:1.0161 10:-0.29928 11:0.57923 
-1 -0 -1 0 0 0:0.038496 1:0.76341 2:78.04 3:0.72605 4:16.9353 5:218.4228 6:3.0133 7:3.7715 8:0.025246 9:0.92993 10:-0.34531 11:0.65408 
-1 -0 -1 0 0 0:0.038058 1:0.68533 2:77.9604 3:0.75067 4:16.9458 5:218.6128 6:2.9957 7:3.7004 8:0.026405 9:0.89437 10:-0.32767 11:0.62416 
-1 -0 -1 0 0 0:0.039343 1:0.73199 2:78.557 3:0.74331 4:16.9955 5:220.0916 6:3.0158 7:3.7399 8:0.026106 9:0.90763 10:-0.35285 11:0.66593 
-0 -0 -1 0 0 0:0.043903 1:0.58868 2:77.7644 3:0.77427 4:16.9318 5:218.9456 6:2.9622 7:3.6025 8:0.027881 9:0.84341 10:-0.36458 11:0.67239 
-0 -0 -1 0 0 0:0.044859 1:0.63534 2:77.8746 3:0.77006 4:16.925 5:218.9178 6:2.9787 7:3.6388 8:0.027528 9:0.86379 10:-0.38316 11:0.70173 
-0 -0 -1 0 0 0:0.044209 1:0.514 2:78.1196 3:0.80011 4:16.954 5:220.1681 6:2.9673 7:3.5546 8:0.029627 9:0.80157 10:-0.38393 11:0.70048 
-1 -0 -1 0 0 0:0.044102 1:0.66588 2:78.1851 3:0.76477 4:16.9567 5:219.5214 6:2.9937 7:3.6767 8:0.027093 9:0.88226 10:-0.38152 11:0.69845 
-1 -0 -1 0 0 0:0.036547 1:0.71443 2:77.8605 3:0.73523 4:16.9358 5:218.1119 6:3.0004 7:3.7363 8:0.025651 9:0.91179 10:-0.31962 11:0.61206 
-0 -0 -1 0 0 0:0.040906 1:0.54051 2:77.7838 3:0.78995 4:16.9056 5:218.7964 6:2.9776 7:3.5854 8:0.028882 9:0.81829 10:-0.36209 11:0.67205 
-1 -0 -1 0 0 0:0.037677 1:0.69552 2:78.2863 3:0.75839 4:16.9442 5:219.4124 6:3.0137 7:3.7133 8:0.026692 9:0.8968 10:-0.342 11:0.6488 
-1 -0 -1 0 0 0:0.037266 1:0.84415 2:78.3496 3:0.73025 4:16.9804 5:219.6648 6:3.0006 7:3.7763 8:0.025164 9:0.9543 10:-0.3296 11:0.62651 
-0 -0 -0.3038294967566664 0 0 0:0.04654 1:0.6443 2:77.6744 3:0.78098 4:16.9242 5:218.9871 6:2.9475 7:3.5889 8:0.028182 9:0.85536 10:-0.36741 11:0.67481 
-1 -0 -1 0 0 0:0.039687 1:0.59597 2:78.1325 3:0.76684 4:16.9487 5:219.215 6:3.0014 7:3.6566 8:0.027396 9:0.8531 10:-0.35433 11:0.6675 
-0 -0 -1 0 0 0:0.041824 1:0.68752 2:77.816 3:0.75483 4:16.9333 5:218.712 6:2.974 7:3.6719 8:0.026594 9:0.89281 10:-0.3486 11:0.65206 
-1 -0 -0 0 0 0:0.04262 1:0.73048 2:77.7529 3:0.75262 4:16.909 5:218.0383 6:2.9928 7:3.7042 8:0.026416 9:0.90645 10:-0.35954 11:0.67137 
